1041 100
the 0.14379276 -0.090176567 0.16213836 -0.051463827 -0.015900562 0.14145878 -0.0027136009 -0.15895179 0.0059322743 0.15259923 -0.097734548 0.26060632 -0.011929142 -0.18438144 0.1768879 -0.025300698 0.17791754 -0.097240254 0.20020716 -0.16352417 0.1083757 0.16710086 -0.029373514 -0.09463679 0.092786714 -0.12789862 -0.028933432 -0.12188065 0.20470674 -0.074986905 0.2425781 -0.09263245 0.097572893 -0.092653811 -0.11349984 -0.10644026 -0.11544084 -0.096590117 -0.1197084 -0.064689711 0.15539944 -0.055676267 -0.21215335 -0.11941959 -0.17476608 -0.086612105 -0.10511977 -0.10466672 -0.068825819 -0.11870626 0.34119743 -0.020823235 -0.079520844 0.21200408 -0.0014197312 -0.000280849 0.0096699391 -0.046479873 -0.063248694 0.15178773 0.077898435 0.22877353 0.23281026 0.01722545 -0.061485257 0.23071438 -0.13098004 0.17549492 0.136806 0.057654321 -0.014110764 -0.092503518 0.045680568 0.22325604 0.069350846 0.15796028 -0.19386631 0.016545005 0.13520966 0.21529676 0.062447648 -0.29910848 0.045998871 0.10651831 -0.12938735 -0.26420748 -0.13908844 -0.14773712 -0.12034618 0.10481726 -0.09857583 0.025418613 0.038652245 0.33192608 -0.15194459 0.10600088 0.10219281 0.1838001 0.066399731 0.054651253
of 0.13619144 -0.094943963 0.15567721 -0.046944834 -0.018867815 0.13878803 0.002561653 -0.16660553 0.0055648806 0.15149994 -0.094996974 0.24525858 -0.015131786 -0.18188547 0.17174846 -0.024508264 0.16838621 -0.09604983 0.19684163 -0.15363456 0.10564405 0.15762199 -0.026759578 -0.095338032 0.092670538 -0.12312173 -0.03075227 -0.11987338 0.19486904 -0.078921698 0.24096686 -0.081018738 0.087434448 -0.087691449 -0.10943924 -0.10979404 -0.11554763 -0.095486373 -0.11603336 -0.072818331 0.1529914 -0.062457219 -0.21461584 -0.11711717 -0.16867365 -0.080826491 -0.10071622 -0.096156709 -0.06884037 -0.11477681 0.33274963 -0.02753452 -0.07840991 0.20900556 -0.013289738 -0.00013126095 0.0099357991 -0.056225412 -0.063492998 0.13964891 0.078486018 0.22022846 0.22957136 0.015320702 -0.07557869 0.22401235 -0.12768812 0.17373265 0.13908476 0.051711887 -0.018179968 -0.083376303 0.042387158 0.21789703 0.068947427 0.15821972 -0.1879579 0.018456994 0.13580742 0.22336082 0.063896187 -0.30097732 0.048586845 0.10007254 -0.12701596 -0.25128484 -0.13887627 -0.14508723 -0.11660639 0.11417574 -0.10276469 0.030241679 0.045293152 0.33138439 -0.14738934 0.10500787 0.091326863 0.18715252 0.070552811 0.058154333
and 0.13876697 -0.096950315 0.16482064 -0.04907269 -0.01154992 0.14601623 -0.0074239648 -0.16630162 0.0066603119 0.15429507 -0.092897378 0.25086394 -0.016909104 -0.1814829 0.17669517 -0.021614151 0.17673954 -0.10215228 0.20764603 -0.16961561 0.10315468 0.16269673 -0.02137135 -0.099648625 0.091014333 -0.12665376 -0.028254753 -0.11595859 0.2055268 -0.081617512 0.24450578 -0.09178517 0.097411491 -0.092699841 -0.11301342 -0.10749299 -0.12320322 -0.089885034 -0.12307464 -0.06899292 0.1620007 -0.060726952 -0.22378665 -0.11833783 -0.17028502 -0.079561852 -0.10803773 -0.090951227 -0.074625283 -0.11754815 0.3428362 -0.024492348 -0.077876762 0.20846631 -0.012743121 -0.0024312136 0.0058090365 -0.058696322 -0.055481903 0.14769022 0.082378738 0.23098074 0.23772666 0.02423838 -0.077479079 0.2320704 -0.13392033 0.17242242 0.15087993 0.054909591 -0.017245181 -0.089970678 0.048888139 0.23043959 0.071279719 0.16051392 -0.18573444 0.021654094 0.13169439 0.22680625 0.07268104 -0.31354997 0.054005396 0.10363888 -0.13474959 -0.26604807 -0.14990743 -0.14940542 -0.12571324 0.11412936 -0.098427735 0.030399801 0.047477201 0.34361532 -0.14985985 0.10998735 0.1036119 0.18738927 0.060523614 0.054820232
in 0.12757729 -0.095035739 0.1540661 -0.050310295 -0.011176991 0.14519447 -0.0046453639 -0.16609977 0.014356682 0.15661035 -0.089591958 0.2509214 -0.01755335 -0.17264178 0.17576325 -0.026025819 0.17612515 -0.093176521 0.20167176 -0.15225354 0.11021307 0.15323855 -0.026331112 -0.095600337 0.094004691 -0.12338352 -0.02513344 -0.12023502 0.19738859 -0.074514285 0.24430606 -0.079453461 0.084751189 -0.096136533 -0.11080518 -0.11176968 -0.12429924 -0.088835426 -0.11573578 -0.070633285 0.15518858 -0.05520194 -0.21608783 -0.11340522 -0.17212196 -0.074273609 -0.10424878 -0.094784953 -0.073797658 -0.10932384 0.32947552 -0.019747632 -0.07730408 0.20124801 -0.0063281166 0.0005549941 0.0047353897 -0.049080677 -0.057340905 0.13548906 0.076411538 0.22470875 0.22382542 0.016451072 -0.074290581 0.22857834 -0.12424144 0.17155555 0.13701673 0.05323654 -0.02325293 -0.07896629 0.044444211 0.22214246 0.075162761 0.16121086 -0.18617032 0.02517313 0.13426693 0.22509973 0.064203613 -0.30421484 0.050765254 0.1024425 -0.1322441 -0.2577109 -0.13977805 -0.14136747 -0.11810002 0.11007257 -0.10174134 0.022505699 0.047726084 0.33988199 -0.14813028 0.10591564 0.10169341 0.17961262 0.060719822 0.057201706
to 0.13765948 -0.087274991 0.15489055 -0.047628142 -0.021935804 0.14017369 0.0022214565 -0.15957049 0.019174494 0.1501275 -0.095863439 0.24914779 -0.01420297 -0.17873344 0.17334172 -0.018409852 0.16731124 -0.098619573 0.20537817 -0.1629162 0.099746667 0.15849911 -0.018459564 -0.091754086 0.090622008 -0.12763211 -0.028425895 -0.11811654 0.19937684 -0.078523748 0.23698355 -0.07935337 0.090591878 -0.097669087 -0.099623114 -0.10759235 -0.12635103 -0.085489959 -0.11190975 -0.072952479 0.16044094 -0.056692578 -0.21388902 -0.11376402 -0.16395709 -0.083001211 -0.10049276 -0.091171406 -0.076111652 -0.1117571 0.33000049 -0.027364034 -0.072118878 0.20142654 -0.0091263615 0.0017774432 0.0022675067 -0.049077336 -0.057121824 0.14478132 0.0780233 0.22621565 0.22226878 0.015107295 -0.072311461 0.2241632 -0.12983723 0.17078227 0.13689801 0.058775488 -0.014874911 -0.080692582 0.054245379 0.22219516 0.068947069 0.15846434 -0.18988076 0.01924298 0.13338852 0.22781679 0.062882222 -0.30346918 0.049420908 0.10331357 -0.12970288 -0.26074839 -0.14931287 -0.14226963 -0.11857612 0.11818807 -0.091200754 0.033946875 0.04144622 0.33823103 -0.14527196 0.10777811 0.1000542 0.18677378 0.060786333 0.051873732
a 0.12635158 -0.094540037 0.15034556 -0.051448636 -0.012334457 0.14575695 -0.0013277375 -0.16127144 0.018133288 0.15880075 -0.081391342 0.24117729 -0.017930463 -0.1766396 0.15959311 -0.020617131 0.17244399 -0.097831383 0.2027301 -0.15059406 0.10552903 0.14749448 -0.011591507 -0.092630722 0.084018566 -0.1155303 -0.030704508 -0.11110442 0.1882322 -0.073137827 0.23163362 -0.08140339 0.090974227 -0.089624405 -0.094250768 -0.10465749 -0.12210078 -0.091400959 -0.10916046 -0.078949809 0.15652035 -0.055158839 -0.21406211 -0.10778037 -0.1570638 -0.079687171 -0.10561598 -0.084627017 -0.069051199 -0.1049584 0.3151921 -0.020368202 -0.071338542 0.19644657 -0.0058439258 0.0009125942 -0.0047316807 -0.052267477 -0.05528298 0.13103633 0.075159431 0.22507748 0.22058715 0.018326666 -0.069238253 0.21814102 -0.12187172 0.16693155 0.13572206 0.056137241 -0.011983063 -0.084773704 0.050416529 0.21270642 0.068333983 0.15341656 -0.1819403 0.020298341 0.13234413 0.21703158 0.068819635 -0.30124927 0.055153765 0.099089712 -0.12519611 -0.24775732 -0.13678899 -0.14273311 -0.11460596 0.1160101 -0.10539342 0.031520348 0.045464043 0.32392609 -0.1518065 0.10821109 0.096315168 0.17937973 0.067232192 0.049151696
as 0.13584135 -0.097463064 0.15743425 -0.052120671 -0.017343624 0.14491343 -0.007813938 -0.15794514 0.0094962986 0.15577266 -0.097618692 0.25124013 -0.021960981 -0.17531924 0.16990754 -0.01787518 0.17691247 -0.10332268 0.21397336 -0.15438005 0.10023451 0.15334605 -0.022021834 -0.092744626 0.094244301 -0.11839756 -0.03104984 -0.11060065 0.19003801 -0.081027649 0.239498 -0.084572285 0.092603579 -0.096535407 -0.10787871 -0.10642926 -0.12500784 -0.094991513 -0.11195952 -0.076332964 0.1596337 -0.05607371 -0.2162324 -0.11250009 -0.16475023 -0.075683005 -0.10386308 -0.087875657 -0.075834319 -0.1036048 0.3345328 -0.022593923 -0.073485337 0.20630017 -0.013815751 0.0037674992 0.0068199108 -0.057383075 -0.055108398 0.13817176 0.077883221 0.22619331 0.22350308 0.017034741 -0.07909742 0.22420146 -0.12998706 0.1685665 0.1476173 0.058790509 -0.021207089 -0.079301991 0.046730906 0.21644802 0.076506436 0.16344811 -0.18078785 0.020505317 0.13102019 0.22780704 0.064635903 -0.30706599 0.051384151 0.10150994 -0.12617476 -0.25755495 -0.14358085 -0.14550674 -0.12220865 0.11966708 -0.094888195 0.027317299 0.041763224 0.34128883 -0.15614694 0.10378923 0.09891957 0.18954676 0.070305474 0.046465591
anarchist 0.12860343 -0.094991609 0.15587316 -0.05471281 -0.0095569594 0.14870963 -0.0084879566 -0.17150789 0.012075374 0.16252932 -0.094738401 0.25035471 -0.018775847 -0.18335584 0.1764777 -0.021944113 0.17901424 -0.1016333 0.21327668 -0.15967251 0.10238188 0.15196685 -0.02006858 -0.097503148 0.091879562 -0.11826055 -0.034796014 -0.11568053 0.19503102 -0.082364559 0.24736877 -0.088352069 0.089110613 -0.094032139 -0.098652527 -0.11335239 -0.11996518 -0.088633865 -0.11755162 -0.073800795 0.15912181 -0.05068269 -0.2183556 -0.1180839 -0.16834287 -0.073053136 -0.10552889 -0.079826951 -0.066677891 -0.10114051 0.33588082 -0.02775046 -0.083418123 0.20260198 -0.0090863425 5.5244946e-05 0.0035677264 -0.061457701 -0.060246512 0.14242984 0.081153922 0.2263018 0.23099507 0.013643124 -0.082372859 0.22776254 -0.13401096 0.17017391 0.143978 0.054051414 -0.019993899 -0.080586851 0.051048689 0.22401108 0.074606664 0.16733368 -0.17999224 0.020031089 0.13771373 0.22493072 0.073489323 -0.31205532 0.057539269 0.10854246 -0.13461681 -0.26211753 -0.14248839 -0.14721499 -0.11770862 0.11792105 -0.10680555 0.029170498 0.045145392 0.33393785 -0.15478329 0.10986459 0.093928032 0.17873272 0.061638135 0.058060423
that 0.12287064 -0.093822747 0.1565254 -0.045108527 -0.01717389 0.13953815 -0.0096540302 -0.16153409 0.012642886 0.15364 -0.092264622 0.24125296 -0.016918829 -0.16979973 0.16990714 -0.015448412 0.17421038 -0.10104063 0.20926277 -0.15590772 0.10638835 0.14227685 -0.019450538 -0.0925631 0.086970106 -0.12291528 -0.030235035 -0.11781912 0.19595428 -0.076031767 0.24176325 -0.078173973 0.089267105 -0.096140608 -0.10455209 -0.10534593 -0.12207511 -0.086878389 -0.10465156 -0.076077089 0.15714477 -0.056242246 -0.21816309 -0.10753064 -0.15577179 -0.073428221 -0.10377913 -0.083903149 -0.067681119 -0.11146809 0.32284424 -0.019143717 -0.075302094 0.20122766 -0.014338685 -0.0032961855 0.0028850129 -0.05774023 -0.052942254 0.13846476 0.080585875 0.22519444 0.22045264 0.021513717 -0.07294739 0.21353464 -0.12371279 0.16764076 0.14687011 0.052484959 -0.012620053 -0.080193415 0.050408904 0.21943937 0.071491823 0.15939751 -0.17949326 0.014741377 0.13454425 0.21594483 0.07016357 -0.30706701 0.046801012 0.10065971 -0.13371238 -0.24960156 -0.13924658 -0.14056256 -0.11256909 0.11477052 -0.09301082 0.034380719 0.042243373 0.32980815 -0.14824656 0.10454241 0.097369075 0.17505834 0.069673948 0.057621613
anarchism 0.12315253 -0.095633462 0.15509938 -0.047069412 -0.0088345027 0.14721866 -0.0009019188 -0.16537744 0.019297305 0.15396312 -0.08626397 0.2321838 -0.02590511 -0.1681129 0.17176403 -0.02137929 0.17209823 -0.097989753 0.20413911 -0.16021919 0.095841229 0.15011936 -0.011260504 -0.088276342 0.091433257 -0.11896838 -0.022529336 -0.11695112 0.19474082 -0.080910064 0.24045685 -0.077867873 0.082745396 -0.090138324 -0.10032357 -0.1062915 -0.11410641 -0.082373917 -0.11513707 -0.081721053 0.15829092 -0.054501515 -0.21144187 -0.108262 -0.16433097 -0.073247239 -0.10519572 -0.072976686 -0.069986336 -0.10359923 0.31803733 -0.024782708 -0.075198494 0.20332523 -0.017418556 -0.0016417685 -0.004191753 -0.062542558 -0.048438791 0.13650614 0.074608251 0.21838568 0.22552837 0.013004142 -0.082508348 0.2189939 -0.12462088 0.16169131 0.14469914 0.048426107 -0.017468611 -0.085405253 0.055613387 0.21064863 0.074666217 0.15542769 -0.17984091 0.026443725 0.12954034 0.22514088 0.070287928 -0.29755515 0.051236141 0.10383671 -0.12717502 -0.25123999 -0.14629214 -0.13635755 -0.11924119 0.11080211 -0.094234586 0.028941633 0.049910493 0.32684419 -0.15386866 0.099827737 0.096434511 0.17555363 0.061725989 0.060927369
was 0.13590203 -0.094660297 0.15245947 -0.048267793 -0.020041155 0.15036668 -0.0025013625 -0.17034042 0.0091273012 0.15855597 -0.086898647 0.24872528 -0.014858454 -0.17967629 0.17404597 -0.024567006 0.17552879 -0.10353545 0.20446935 -0.15699501 0.1068799 0.15651384 -0.023260253 -0.097667277 0.090697877 -0.11935715 -0.029625082 -0.11793848 0.19785166 -0.084842019 0.25049633 -0.085264139 0.087271906 -0.091783211 -0.10458848 -0.11343268 -0.12666398 -0.090481587 -0.11597108 -0.077036172 0.16288234 -0.059394419 -0.21915573 -0.11370198 -0.17627585 -0.075284742 -0.10490216 -0.084151641 -0.076512404 -0.11005459 0.33334634 -0.020927312 -0.07860475 0.19838114 -0.010377417 -0.0017347984 -0.0026575869 -0.052487072 -0.060980622 0.13693124 0.078909755 0.22814336 0.22725742 0.015833123 -0.076730125 0.22870646 -0.12966849 0.17330961 0.14529116 0.060428813 -0.023441875 -0.079991885 0.051442221 0.2230017 0.073706791 0.15989088 -0.1820785 0.019137761 0.14156547 0.22259688 0.064084731 -0.30497503 0.049728654 0.10244847 -0.13684055 -0.25632709 -0.14069228 -0.14287867 -0.12416743 0.110423 -0.1111013 0.02718056 0.046148717 0.33406553 -0.156737 0.11430138 0.09071324 0.18202578 0.062451486 0.049765076
by 0.12079495 -0.096334226 0.14762761 -0.047509152 -0.016601423 0.14897808 -0.0076027331 -0.16403107 0.014024938 0.16192213 -0.087421194 0.24948178 -0.022108788 -0.17944479 0.16949487 -0.017437555 0.17525101 -0.091610268 0.20368402 -0.15417519 0.10543498 0.14609711 -0.012280654 -0.096706063 0.084124006 -0.12288608 -0.027442664 -0.11554721 0.18729292 -0.073651128 0.24572049 -0.084391654 0.090917096 -0.098906539 -0.10245895 -0.11141847 -0.117309 -0.091877975 -0.10499822 -0.080825627 0.15572529 -0.048969578 -0.21726526 -0.1146911 -0.16541669 -0.077022314 -0.10985491 -0.082587369 -0.070420012 -0.10584696 0.32695368 -0.018215287 -0.079750538 0.19300464 -0.0046293233 -0.00055158121 -0.0031744123 -0.053351369 -0.053009737 0.13271157 0.079705633 0.23350006 0.21567076 0.016749581 -0.077939883 0.22566178 -0.12268813 0.1690045 0.14331914 0.0556699 -0.017123682 -0.084955066 0.052354891 0.21491197 0.075693816 0.15925199 -0.1767235 0.021330204 0.13485093 0.21681525 0.063282654 -0.30718076 0.054663137 0.10210029 -0.13126922 -0.25735471 -0.14585799 -0.14533626 -0.1177049 0.10995909 -0.10727295 0.024477456 0.041738987 0.33284831 -0.1470615 0.10387217 0.096238382 0.17843933 0.064754076 0.049067754
is 0.12089083 -0.090426788 0.14886314 -0.045426812 -0.0085126543 0.139708 -0.0015442934 -0.15779682 0.014748129 0.14645712 -0.086029276 0.23924333 -0.019325236 -0.17181712 0.16524801 -0.019901283 0.17000747 -0.094098911 0.20722555 -0.14957704 0.09845823 0.1461879 -0.020664973 -0.091472737 0.091547407 -0.11472321 -0.029325889 -0.10932297 0.18979238 -0.082395166 0.22918439 -0.082854331 0.086198114 -0.087106638 -0.10362839 -0.10228441 -0.11758431 -0.091573313 -0.10292451 -0.069215082 0.15842736 -0.050392769 -0.21237454 -0.10399226 -0.15954033 -0.076159686 -0.10552735 -0.081660114 -0.070183635 -0.10521749 0.31788531 -0.020199362 -0.076571479 0.19583681 -0.012208879 -0.0058391197 0.0054026521 -0.056045961 -0.059786368 0.1343209 0.077077456 0.21567547 0.21833734 0.014686315 -0.077047415 0.21114074 -0.12351384 0.16447447 0.13795877 0.048278276 -0.014478924 -0.07768634 0.047034834 0.20790835 0.071496658 0.15271023 -0.1806495 0.02018355 0.12589841 0.21847261 0.0604164 -0.29810959 0.043859363 0.099011533 -0.12828314 -0.24176812 -0.14442706 -0.13969398 -0.11499153 0.11007596 -0.091464624 0.031792212 0.037077438 0.32494587 -0.14896141 0.099895164 0.090690121 0.17803653 0.062381577 0.050870545
for 0.12523666 -0.088715874 0.15624833 -0.056187883 -0.01076824 0.14927517 -0.011354354 -0.1640811 0.0078460425 0.15278465 -0.08715561 0.2505019 -0.021042857 -0.17562748 0.17353235 -0.018739583 0.17629124 -0.099643879 0.20909211 -0.15753417 0.10113583 0.14916532 -0.019459108 -0.089833491 0.084349871 -0.12296349 -0.027779074 -0.12330819 0.19312049 -0.08229547 0.25028074 -0.089007176 0.092538029 -0.096577413 -0.10549351 -0.10922116 -0.1282091 -0.087799557 -0.1104846 -0.074863061 0.16189533 -0.057785083 -0.21822131 -0.11385909 -0.17234622 -0.077216558 -0.10813772 -0.081123739 -0.066864491 -0.11134557 0.33221102 -0.026792727 -0.072795428 0.19866709 -0.0080126645 0.003177363 -0.0027401133 -0.053014699 -0.060414001 0.13873979 0.081184782 0.22782329 0.22269259 0.014570117 -0.077833742 0.23053226 -0.13247631 0.16610739 0.14651963 0.054040365 -0.013466015 -0.083634324 0.054417919 0.21713172 0.078177422 0.15610015 -0.1878843 0.016918624 0.13857245 0.23039781 0.066842183 -0.30957329 0.047244579 0.10362855 -0.1269227 -0.25062147 -0.14719227 -0.15165822 -0.11975484 0.12015228 -0.10372079 0.034801356 0.049464289 0.33839744 -0.14859644 0.11112559 0.089883193 0.17915994 0.066916727 0.054469544
an 0.12655289 -0.092153877 0.1518742 -0.049364895 -0.018885795 0.14462082 -0.01127279 -0.16286168 0.010984502 0.15918656 -0.084416851 0.24043313 -0.016373532 -0.1685525 0.16321485 -0.021313166 0.16804461 -0.095560111 0.20749113 -0.16161366 0.10249927 0.14497073 -0.0099173319 -0.0916982 0.090536647 -0.11672354 -0.03086794 -0.11758 0.18590204 -0.078602627 0.23981892 -0.077310108 0.085945725 -0.09084928 -0.10423341 -0.10825273 -0.12050536 -0.088281952 -0.10855153 -0.070278972 0.15634811 -0.052356984 -0.21484292 -0.11137009 -0.15866044 -0.072335243 -0.10810064 -0.080804706 -0.073304102 -0.10609586 0.31966045 -0.028350834 -0.078464225 0.19572948 -0.0095978389 -0.0061104712 0.0054998905 -0.057912759 -0.054336566 0.13385098 0.07400655 0.22617199 0.21942689 0.015289409 -0.070671536 0.21979834 -0.12104852 0.16659677 0.14546715 0.05154426 -0.013137546 -0.077709451 0.049575098 0.21451411 0.068701059 0.1533166 -0.17924497 0.018979574 0.12583625 0.22147596 0.065671928 -0.3004714 0.045816265 0.099251658 -0.12400303 -0.24805726 -0.1430544 -0.14068888 -0.11427147 0.10752121 -0.093962029 0.029356714 0.042932417 0.32831576 -0.14673862 0.10905555 0.097775362 0.17947286 0.061322056 0.055837356
with 0.13027938 -0.087105893 0.15561686 -0.049961004 -0.014114082 0.14938785 0.0010357487 -0.15900174 0.0085739149 0.15921573 -0.087157294 0.24664144 -0.022317644 -0.17996232 0.17101699 -0.021975921 0.17449105 -0.097073093 0.20432366 -0.16064309 0.10834736 0.15403704 -0.015587782 -0.091906339 0.089817241 -0.12595905 -0.024663834 -0.11372809 0.20085305 -0.078299433 0.24135913 -0.078131095 0.087337144 -0.093731076 -0.10192429 -0.10470285 -0.11862152 -0.088628747 -0.11709995 -0.071910098 0.1611044 -0.051360663 -0.21192783 -0.12022611 -0.16656531 -0.073159881 -0.1044059 -0.082108811 -0.070288219 -0.1093256 0.33444098 -0.021431234 -0.074734226 0.20688996 -0.013728792 -0.0045866133 0.0012388895 -0.053380109 -0.059591934 0.14320569 0.080405429 0.22722495 0.22846912 0.016894955 -0.075356849 0.22774576 -0.13182209 0.17128894 0.14036152 0.057971705 -0.020629399 -0.079145759 0.046800476 0.22409619 0.073043957 0.15788916 -0.18267153 0.027989043 0.12582386 0.22706419 0.063033827 -0.30767921 0.054550685 0.10248626 -0.13572846 -0.25602177 -0.14440896 -0.14155032 -0.12044024 0.1113947 -0.096450068 0.028297212 0.043869555 0.33725184 -0.15224496 0.10283701 0.09171889 0.18172918 0.062790439 0.059366938
on 0.13350187 -0.089450367 0.15305112 -0.055055607 -0.0093379691 0.14726084 -0.0055366931 -0.15384571 0.0093192523 0.15210094 -0.088638149 0.24148697 -0.015983459 -0.17007497 0.16921005 -0.015587523 0.16920492 -0.097140372 0.20304336 -0.15539013 0.10836934 0.15485489 -0.012265816 -0.10063105 0.086988293 -0.12225756 -0.026407015 -0.11508094 0.19539049 -0.080254927 0.24365512 -0.083633073 0.09206339 -0.091638774 -0.099821419 -0.10210612 -0.11942076 -0.08675994 -0.11186474 -0.073113374 0.16193801 -0.049600679 -0.20961305 -0.1106878 -0.16718221 -0.075878322 -0.10773322 -0.090285607 -0.06826286 -0.10817973 0.32314667 -0.025890402 -0.072834142 0.20597062 -0.011984035 0.0035482764 0.0024579351 -0.053680878 -0.054831184 0.13849385 0.07643526 0.22525144 0.22166832 0.010664952 -0.069592856 0.22469236 -0.1294177 0.16940831 0.1431101 0.054910686 -0.02068208 -0.075087562 0.056976955 0.21948463 0.066549152 0.15716003 -0.18145913 0.019219572 0.12984638 0.22627726 0.066720821 -0.3074964 0.044406522 0.098268673 -0.12691005 -0.25375119 -0.1472728 -0.14862271 -0.11998656 0.10996405 -0.096746691 0.026783623 0.041052151 0.33088702 -0.14648305 0.10361499 0.093994781 0.18416265 0.068056427 0.050704747
anarchists 0.13144863 -0.090973422 0.16197576 -0.052142099 -0.017649762 0.15196542 0.00038431064 -0.16843393 0.010292997 0.15863718 -0.094229713 0.25286913 -0.014966585 -0.17914201 0.17777178 -0.021087777 0.18120636 -0.094513148 0.20723778 -0.16435413 0.10948115 0.15335111 -0.020290028 -0.098465391 0.089585274 -0.12048154 -0.033186421 -0.12113713 0.19571923 -0.080142751 0.24617973 -0.085934758 0.095230073 -0.099747412 -0.10365888 -0.10956437 -0.12345694 -0.092703797 -0.11573435 -0.080026701 0.15785104 -0.056585189 -0.21762757 -0.11815753 -0.16974944 -0.07669697 -0.10892385 -0.084885314 -0.075324528 -0.11401565 0.33746731 -0.029520838 -0.071963951 0.21020712 -0.0068501835 -0.00040877977 -0.0034375959 -0.052613392 -0.060370538 0.13840197 0.081646651 0.22937645 0.22977245 0.01522758 -0.075215176 0.23176052 -0.12925386 0.17323293 0.15060394 0.059986096 -0.023173055 -0.077754982 0.056671649 0.22217961 0.075462624 0.16698332 -0.18642962 0.02421226 0.13550586 0.227808 0.068297602 -0.31479284 0.052312065 0.10426409 -0.13599044 -0.25669473 -0.14201201 -0.15559363 -0.12427288 0.11691408 -0.098238513 0.02827269 0.042467788 0.34073949 -0.15979511 0.10694571 0.098924913 0.18785651 0.063260674 0.054086771
from 0.12756377 -0.095601752 0.14974186 -0.047399275 -0.018634222 0.14248966 -0.012630328 -0.16599816 0.012881502 0.15994051 -0.087489925 0.24565113 -0.015087259 -0.17266601 0.1711702 -0.023339514 0.17619057 -0.097254597 0.21076341 -0.16126336 0.10327364 0.15276292 -0.012970976 -0.096403539 0.084871143 -0.12433848 -0.0328402 -0.11837661 0.18949611 -0.08336933 0.24466074 -0.086554661 0.092729032 -0.096941151 -0.093827739 -0.10598459 -0.12087325 -0.089324549 -0.11318541 -0.079667069 0.1608648 -0.050209243 -0.21403013 -0.11439342 -0.16822888 -0.074763067 -0.10881745 -0.076238669 -0.068948895 -0.10548664 0.32950965 -0.030763811 -0.077163696 0.20281509 -0.011783791 -0.0067255083 -0.0062829419 -0.051345374 -0.052037269 0.13538013 0.077211529 0.22549719 0.2268015 0.021807136 -0.077867918 0.22247659 -0.12393681 0.16912137 0.14256144 0.061641324 -0.013789738 -0.07616023 0.049247276 0.21606705 0.074094377 0.1580217 -0.18397008 0.021107918 0.12785667 0.22817093 0.061512478 -0.30252552 0.047216747 0.099729665 -0.13196519 -0.25242063 -0.13892387 -0.14624369 -0.12158766 0.11948218 -0.10156701 0.034040317 0.044821437 0.3347767 -0.14432363 0.10887159 0.09759362 0.17659299 0.067475952 0.048990279
p 0.13094583 -0.09311346 0.14957266 -0.047741298 -0.012457252 0.15230283 -0.014264049 -0.15999599 0.023082804 0.16290943 -0.075895756 0.23300451 -0.019899527 -0.17002776 0.16768305 -0.012031456 0.17365398 -0.093998343 0.21903262 -0.16390868 0.10296502 0.14422017 -0.010881505 -0.09067218 0.081851721 -0.12653121 -0.026964284 -0.12562396 0.19167809 -0.084978595 0.24143593 -0.078845933 0.089759737 -0.095930055 -0.093004622 -0.10452877 -0.12300411 -0.082323261 -0.1156318 -0.078822725 0.15971196 -0.050192591 -0.214191 -0.11456953 -0.17104778 -0.064221114 -0.10393692 -0.070002571 -0.083868921 -0.096305117 0.31405219 -0.023020079 -0.081159748 0.20885745 -0.011192089 -0.00033883195 -0.0053816787 -0.065978944 -0.047558587 0.13089804 0.081848823 0.23305251 0.23391563 0.018726949 -0.086903669 0.22654726 -0.12687431 0.16017754 0.14368455 0.052403588 -0.011287034 -0.089120872 0.054494556 0.22321416 0.081464149 0.1611039 -0.18295625 0.02445122 0.13377865 0.23023042 0.071214862 -0.31547961 0.05725513 0.10534582 -0.13071136 -0.25466532 -0.15007828 -0.14622493 -0.11781153 0.12789176 -0.10512658 0.035362795 0.048489746 0.34123653 -0.15880141 0.10882774 0.092880845 0.18264137 0.062786065 0.063739389
or 0.1308634 -0.097127117 0.15962508 -0.052505411 -0.010724289 0.14401403 -0.0097281244 -0.16344666 0.016623203 0.15531455 -0.088977449 0.24958785 -0.022239812 -0.17270057 0.17160806 -0.017165581 0.17301847 -0.095387518 0.21140131 -0.16627267 0.10331204 0.14580433 -0.0098628011 -0.094277009 0.088213317 -0.12779588 -0.025186168 -0.11516313 0.19014661 -0.081573524 0.24240735 -0.089523144 0.094741933 -0.097866312 -0.10645103 -0.10381608 -0.11789933 -0.086385332 -0.10950569 -0.079633906 0.16310009 -0.050742194 -0.21861529 -0.1103643 -0.16845392 -0.070761681 -0.10854159 -0.078420676 -0.069970302 -0.10309277 0.33118325 -0.025678758 -0.079332925 0.20315048 -0.01001346 -0.0006866504 -0.0012892779 -0.058226839 -0.053771157 0.14126731 0.078101948 0.23111303 0.22403809 0.019972337 -0.077853113 0.22285099 -0.12846138 0.16728841 0.14318657 0.059682593 -0.011154965 -0.080834903 0.055560123 0.22304441 0.069337711 0.16161539 -0.18729049 0.023335857 0.12722404 0.2286437 0.063146457 -0.30724141 0.048232339 0.10826745 -0.12725958 -0.25956231 -0.1508373 -0.14777049 -0.11789465 0.11320145 -0.093042232 0.032439798 0.044764355 0.33659407 -0.14733532 0.10649629 0.094435431 0.18728822 0.063660517 0.053300764
it 0.12013716 -0.092532448 0.1520683 -0.052717872 -0.016101453 0.14086564 -0.010138025 -0.15909186 0.0079481555 0.14727344 -0.0869205 0.23827115 -0.011993017 -0.16579872 0.16826393 -0.023827456 0.17146716 -0.097685739 0.20292136 -0.14895862 0.099982761 0.14165549 -0.019282281 -0.088312805 0.081927776 -0.11863729 -0.026737686 -0.10863329 0.18841471 -0.075574011 0.23840491 -0.076891072 0.08450257 -0.097622365 -0.099186897 -0.10672857 -0.11344041 -0.087375291 -0.1055975 -0.065974124 0.14906882 -0.056874566 -0.21371816 -0.10883537 -0.1612041 -0.072966062 -0.10155769 -0.086936221 -0.065721408 -0.10337325 0.32021061 -0.025615402 -0.077829361 0.19989337 -0.01409438 -0.0054084579 0.0020530659 -0.056019209 -0.05348675 0.13695684 0.071236886 0.22030537 0.21593535 0.012443424 -0.06994199 0.21829747 -0.12352657 0.16374567 0.14083514 0.057950836 -0.018292148 -0.076099508 0.054041333 0.21689044 0.067478999 0.14685011 -0.17975974 0.019071933 0.12933435 0.22005638 0.06439697 -0.29294518 0.046300326 0.094054133 -0.12829533 -0.24345836 -0.14082482 -0.13978769 -0.11300852 0.11239766 -0.10097897 0.030163964 0.042076837 0.31825772 -0.14234984 0.10494613 0.089517713 0.16908672 0.066444345 0.057230566
which 0.12657885 -0.088803321 0.14990096 -0.048701439 -0.018599518 0.14462474 -0.006935643 -0.16264609 0.019149812 0.15255201 -0.089472748 0.24490595 -0.01472354 -0.17631394 0.15997159 -0.024081774 0.1683726 -0.091290623 0.20719436 -0.1566654 0.099478133 0.15000896 -0.01782563 -0.095413193 0.086895622 -0.11604321 -0.023200564 -0.11847427 0.18754666 -0.077485152 0.23651685 -0.08375413 0.086278759 -0.094614618 -0.10138749 -0.10657561 -0.12104493 -0.088259757 -0.10753862 -0.069728725 0.15545864 -0.056061789 -0.21386759 -0.10477073 -0.15991652 -0.071240731 -0.10370232 -0.07593058 -0.067627698 -0.10424097 0.31651852 -0.028167257 -0.078528255 0.19063416 -0.01150619 0.0031822971 0.00082179147 -0.051438827 -0.060012188 0.12886147 0.071441412 0.22003467 0.22222446 0.012943842 -0.078588456 0.22088085 -0.12613207 0.16327283 0.14074466 0.053323779 -0.023558298 -0.083657816 0.045569796 0.21631362 0.066683903 0.15077583 -0.17924151 0.020537853 0.1334051 0.2223396 0.068060003 -0.29957694 0.053722821 0.10689834 -0.12756996 -0.25159362 -0.14209004 -0.14453058 -0.1108134 0.11682409 -0.10003769 0.025937513 0.039195236 0.33093449 -0.14771134 0.10795209 0.096863396 0.17586204 0.067531504 0.054981072
at 0.1247422 -0.091030642 0.14658514 -0.052263748 -0.016448291 0.14756535 -0.0042781825 -0.16368739 0.011088523 0.15152441 -0.083212875 0.23714079 -0.016455621 -0.17080641 0.16548665 -0.01606309 0.1750029 -0.092785418 0.20072357 -0.15063573 0.1076215 0.1451 -0.012908596 -0.0955818 0.086345173 -0.11795206 -0.03096891 -0.11477351 0.19019645 -0.077295266 0.24281025 -0.076582469 0.082598813 -0.095415093 -0.10396198 -0.10024016 -0.12343706 -0.093191452 -0.1061495 -0.070994563 0.15088032 -0.051830761 -0.21319102 -0.11079911 -0.16829909 -0.073318779 -0.10336256 -0.079258628 -0.072170191 -0.10213943 0.32124493 -0.026831388 -0.077051654 0.20153308 -0.011285752 -0.0055987439 -0.0021308216 -0.057969671 -0.058449138 0.13047655 0.081597999 0.22485107 0.2197134 0.01983008 -0.075968005 0.22056518 -0.13011283 0.16460899 0.14145087 0.052568235 -0.01756596 -0.07708393 0.055509381 0.22070768 0.070190951 0.15725908 -0.17487366 0.024744552 0.127158 0.21468905 0.065584101 -0.30286041 0.049393609 0.10102337 -0.12330899 -0.24980399 -0.13545102 -0.13785483 -0.11549688 0.1154471 -0.10382354 0.029896317 0.048696943 0.33023596 -0.14672869 0.10693739 0.092989542 0.17463152 0.060455702 0.055082712
were 0.13567862 -0.091900103 0.16207823 -0.0511082 -0.014337925 0.14749211 -0.0030090879 -0.16684869 0.01161003 0.16167995 -0.093794137 0.24711758 -0.024138853 -0.17599685 0.17687917 -0.015989829 0.18036421 -0.099091545 0.21262629 -0.15792525 0.1012696 0.15604314 -0.019434351 -0.093303211 0.084522493 -0.12108285 -0.032369819 -0.11600058 0.20321073 -0.081555665 0.24608867 -0.084527031 0.0961954 -0.092479959 -0.10241213 -0.11009268 -0.12706698 -0.088864163 -0.11022914 -0.071419768 0.16349509 -0.051264379 -0.2173979 -0.11254129 -0.17120017 -0.076451935 -0.10483781 -0.090983622 -0.07375899 -0.10809684 0.33800203 -0.02030129 -0.072137468 0.20005962 -0.006222202 -0.0049441098 0.0036703621 -0.053131912 -0.058931522 0.13883193 0.078448027 0.23286523 0.22450525 0.02153836 -0.068043388 0.23205993 -0.1291251 0.16780552 0.14531161 0.05149838 -0.01899685 -0.082180642 0.054852497 0.22427614 0.067052089 0.15985234 -0.18889907 0.019740527 0.13235305 0.23173454 0.070079312 -0.31375003 0.054213557 0.097341888 -0.13227023 -0.25996149 -0.15153165 -0.15101123 -0.11937506 0.11135536 -0.10596206 0.030532282 0.040661432 0.34340045 -0.15039366 0.10560226 0.1007965 0.18626526 0.065571152 0.059166733
not 0.13111898 -0.099021807 0.15338536 -0.050849203 -0.0087510841 0.14077508 -0.0053030658 -0.16206314 0.020236436 0.15941878 -0.094700798 0.24252859 -0.024173275 -0.16563047 0.16998814 -0.016986955 0.17610857 -0.10240777 0.20329784 -0.16102901 0.10787502 0.14813688 -0.012691774 -0.097347133 0.082312927 -0.12279177 -0.030839471 -0.12403437 0.19176419 -0.080523841 0.24242322 -0.083245762 0.092045009 -0.093109526 -0.10668478 -0.11213998 -0.12192754 -0.088605709 -0.11170765 -0.075542942 0.16456924 -0.055265654 -0.21988134 -0.11770966 -0.16493581 -0.074128039 -0.098706156 -0.080142803 -0.077457353 -0.10558268 0.32922974 -0.021825444 -0.075542264 0.19711776 -0.017249085 -0.0066003348 0.0070835487 -0.053783484 -0.053829763 0.13366336 0.072328225 0.22861257 0.22873892 0.022455353 -0.075479098 0.21466373 -0.13228197 0.16759397 0.13982959 0.051062696 -0.0089713568 -0.086566672 0.049200855 0.21755701 0.063273422 0.16193652 -0.17806265 0.023881575 0.12967871 0.21777615 0.069206849 -0.30498368 0.052813549 0.10500313 -0.1285814 -0.2562792 -0.1492537 -0.14871791 -0.10880598 0.11566093 -0.092658259 0.033996988 0.042505123 0.3364509 -0.15375166 0.10833371 0.099281035 0.18420811 0.067666911 0.055325828
movement 0.13170674 -0.094528072 0.154101 -0.044075783 -0.0091756694 0.14574943 -0.0040014694 -0.15831333 0.016072735 0.15854102 -0.091825597 0.24346906 -0.015563368 -0.17139994 0.16648559 -0.023001289 0.17359228 -0.09814743 0.20227413 -0.15913133 0.10528605 0.14690104 -0.01434662 -0.091040023 0.086053483 -0.11411155 -0.03384725 -0.12332791 0.19184878 -0.080785871 0.2411155 -0.080871567 0.084784709 -0.090405591 -0.10199463 -0.10245777 -0.12040914 -0.087606512 -0.11106075 -0.072379544 0.1514398 -0.055960372 -0.21857005 -0.11636873 -0.16239315 -0.076457165 -0.10365411 -0.081591532 -0.07094299 -0.10439941 0.3257792 -0.019039692 -0.073952928 0.20123124 -0.0082718898 -0.0043870392 0.0034744744 -0.055340935 -0.054174546 0.13194303 0.081630446 0.23075895 0.22030044 0.017031746 -0.072417393 0.21791676 -0.12922221 0.17400125 0.1377846 0.054807205 -0.020639967 -0.076190978 0.045844022 0.21198604 0.0711869 0.16126557 -0.17720373 0.018910915 0.13060576 0.21809019 0.068810485 -0.3010768 0.055563305 0.10358179 -0.12889294 -0.25408435 -0.14167401 -0.1456854 -0.11591206 0.10884093 -0.10630867 0.030800151 0.043576092 0.32824072 -0.15560456 0.10514965 0.095384635 0.17796142 0.064525001 0.054819122
his 0.12157175 -0.096589126 0.14949977 -0.048974685 -0.014254033 0.14230905 -0.012534815 -0.16168618 0.015580481 0.15763174 -0.091302179 0.2410979 -0.016651168 -0.17325725 0.16710195 -0.017228303 0.1686856 -0.092558675 0.20658036 -0.15656744 0.10149284 0.14807293 -0.015149149 -0.095778875 0.082192987 -0.12033305 -0.030139081 -0.12113238 0.19313285 -0.081978939 0.24372151 -0.081066087 0.08875218 -0.091270953 -0.10416266 -0.10280534 -0.11840494 -0.084752142 -0.10824239 -0.070954405 0.15922493 -0.053768773 -0.21117595 -0.11180011 -0.16614304 -0.079430982 -0.099935576 -0.082558207 -0.073058821 -0.11031958 0.32684955 -0.020722324 -0.073942043 0.20020454 -0.013390127 -0.0034542088 -0.00023792294 -0.057590287 -0.051621754 0.1339068 0.078410991 0.22746368 0.21750061 0.022119291 -0.076582998 0.2146991 -0.12773012 0.16654809 0.13725452 0.055854499 -0.017483002 -0.084534816 0.053736582 0.22178957 0.073294654 0.15808827 -0.17561339 0.022339318 0.13090424 0.21830802 0.069519952 -0.30367222 0.045997966 0.10011081 -0.1276304 -0.25024661 -0.13824064 -0.14424916 -0.11199578 0.11316081 -0.10503567 0.026197465 0.050262928 0.32451221 -0.14416605 0.10979844 0.09148483 0.17508784 0.060818121 0.052582111
first 0.12981172 -0.088186726 0.15278107 -0.054343548 -0.018161902 0.1461859 -0.0033783864 -0.16600588 0.01424216 0.15122336 -0.089528687 0.24681634 -0.014243689 -0.17541724 0.16839665 -0.025178583 0.17210685 -0.098406345 0.20819275 -0.16332437 0.10837004 0.15586536 -0.018186463 -0.092120148 0.091777623 -0.117015 -0.028858012 -0.11364012 0.19566208 -0.079462819 0.24032462 -0.080102094 0.093939818 -0.08984521 -0.10049395 -0.10985906 -0.125507 -0.084506527 -0.11297445 -0.073721856 0.15687728 -0.051498253 -0.22007921 -0.11151797 -0.1634618 -0.076893933 -0.1034051 -0.080511563 -0.073752783 -0.10784046 0.32733676 -0.025567191 -0.074893557 0.20156613 -0.016804986 0.0041941204 0.00036813249 -0.056286886 -0.058689307 0.14183125 0.074265286 0.22862361 0.21976669 0.020683184 -0.08022736 0.22082022 -0.12965436 0.16118415 0.14047724 0.057688825 -0.013868052 -0.07509549 0.046724673 0.21663806 0.07054431 0.15858425 -0.17517859 0.017170532 0.13233288 0.22146437 0.061531566 -0.3085826 0.046087183 0.10628864 -0.13312022 -0.25974545 -0.14041974 -0.14151853 -0.11473675 0.11011916 -0.10219597 0.035565894 0.046726834 0.33654237 -0.15291584 0.10743736 0.094468288 0.18074155 0.063757502 0.058547463
he 0.12711208 -0.096237138 0.15172255 -0.046633381 -0.016453512 0.14233384 -0.004761586 -0.16207741 0.012171655 0.14810528 -0.08904437 0.24264684 -0.014962276 -0.17020236 0.16827457 -0.022607798 0.17178614 -0.093193918 0.20532472 -0.15860577 0.10076846 0.14276043 -0.020266745 -0.08628194 0.084218659 -0.12353219 -0.031173611 -0.11637677 0.19070484 -0.080309071 0.23761445 -0.081124239 0.089651801 -0.093602918 -0.10051608 -0.10756341 -0.11974473 -0.085695304 -0.10937243 -0.072320521 0.15826954 -0.057389438 -0.21329334 -0.1060371 -0.15638861 -0.069127448 -0.10367171 -0.083972774 -0.071399674 -0.10609938 0.31692654 -0.022352342 -0.076216765 0.19155401 -0.015643133 0.001413128 -0.00044714907 -0.051602233 -0.059589941 0.13905361 0.07258299 0.22654578 0.22206075 0.017835148 -0.06885764 0.21070069 -0.12163483 0.15773663 0.14517494 0.053534154 -0.01332877 -0.08193925 0.046545878 0.21674769 0.065325677 0.15568918 -0.17182867 0.022735847 0.12657996 0.21603763 0.060784101 -0.29862383 0.050142739 0.096702084 -0.12666249 -0.2486811 -0.14565261 -0.14051455 -0.10805971 0.11539687 -0.093644165 0.026964881 0.047837634 0.32540312 -0.1515049 0.10881177 0.093231514 0.1766651 0.061954036 0.052227944
state 0.12866136 -0.098366402 0.15470012 -0.054878861 -0.0097091468 0.14968769 -0.008932421 -0.15617916 0.019497721 0.16092554 -0.093765579 0.2411707 -0.019470878 -0.16869085 0.1674453 -0.02508226 0.17551386 -0.10143938 0.21163009 -0.16361654 0.10234527 0.14739653 -0.019412158 -0.098786429 0.087038353 -0.12041909 -0.026747594 -0.11849558 0.19643949 -0.077278294 0.24180113 -0.083560035 0.09026058 -0.09009257 -0.1056042 -0.11006697 -0.1251442 -0.094417766 -0.11452475 -0.077818818 0.15844655 -0.049486097 -0.21124831 -0.11043933 -0.16169511 -0.077235281 -0.10328684 -0.081173114 -0.076961659 -0.10857338 0.33031911 -0.021144388 -0.080849573 0.20053823 -0.018315259 -0.0056352657 0.0035519777 -0.057386059 -0.056148402 0.14221549 0.07855729 0.22061805 0.22613645 0.017894251 -0.077275246 0.22435313 -0.12986366 0.16605705 0.14618646 0.053723056 -0.017743515 -0.083533064 0.050184127 0.22313489 0.064837791 0.15367247 -0.182142 0.022192797 0.13340832 0.22402903 0.065336704 -0.30998495 0.049227998 0.10627376 -0.12741043 -0.24974345 -0.1502613 -0.14661314 -0.11431788 0.11592522 -0.097687244 0.028506916 0.045414627 0.33390728 -0.14507848 0.10486599 0.095420741 0.18376097 0.060800113 0.049096011
their 0.13125253 -0.087913945 0.15051594 -0.052976083 -0.013880352 0.14263447 -0.0090197306 -0.15666482 0.007870445 0.15667905 -0.086958624 0.24204315 -0.017735092 -0.17582929 0.17216022 -0.01462492 0.16704643 -0.099265151 0.2082974 -0.16082099 0.1014007 0.15268677 -0.02150259 -0.094637431 0.090296537 -0.12180844 -0.031980906 -0.12205703 0.19774371 -0.084395841 0.24489614 -0.088883765 0.094995737 -0.097143233 -0.10068582 -0.10398448 -0.12599172 -0.085404269 -0.10957187 -0.073613659 0.15595604 -0.056899805 -0.2171316 -0.11293402 -0.16517839 -0.076114051 -0.10610808 -0.086681426 -0.075358495 -0.1129021 0.32926762 -0.019806335 -0.074756525 0.19634441 -0.0069246166 0.00081564294 0.0034194163 -0.048666582 -0.061190773 0.14171056 0.079140767 0.22978967 0.22177558 0.016559767 -0.068984985 0.22218888 -0.13348992 0.16558409 0.14115068 0.055524517 -0.021729138 -0.079401024 0.050524265 0.21352781 0.065989517 0.1597594 -0.18428637 0.016658878 0.13236846 0.2284268 0.061211992 -0.30519077 0.054585643 0.10132135 -0.12398535 -0.24881458 -0.13936135 -0.14134862 -0.11724336 0.11654277 -0.097418331 0.033312943 0.041306082 0.33114791 -0.15333581 0.10684911 0.092580885 0.18523055 0.06622988 0.051936805
its 0.12473205 -0.092887022 0.14987747 -0.050145589 -0.009827856 0.14124951 -0.0098837428 -0.16069588 0.019416288 0.15499206 -0.091393784 0.24500054 -0.019985206 -0.16831012 0.16669865 -0.025909072 0.17508897 -0.095025636 0.2051096 -0.15878554 0.10095426 0.14954494 -0.020337055 -0.093959764 0.089510031 -0.1255044 -0.025877293 -0.1140092 0.19009055 -0.082545787 0.2365983 -0.079623334 0.090141967 -0.08781749 -0.10308817 -0.10406481 -0.12327617 -0.0872619 -0.10984142 -0.070118479 0.15269391 -0.057983395 -0.21821186 -0.10857767 -0.16206753 -0.079153299 -0.1031235 -0.082398288 -0.069616422 -0.10393622 0.32573003 -0.02685702 -0.075861312 0.20034763 -0.010912816 0.0037707551 -0.0032209069 -0.053278364 -0.051146526 0.13520706 0.070535652 0.2228533 0.22271086 0.018522201 -0.078312032 0.21428294 -0.12176735 0.16666731 0.14518715 0.056396138 -0.014613856 -0.082443513 0.047338478 0.22012343 0.065608338 0.15916559 -0.18089697 0.017842403 0.13488194 0.22527798 0.065519914 -0.30663362 0.047914967 0.10171296 -0.12773672 -0.25203079 -0.14864668 -0.13782375 -0.10927173 0.11270044 -0.099426456 0.026542725 0.039501619 0.32903874 -0.14997628 0.10734227 0.096336953 0.1817458 0.064363323 0.051419027
de 0.093144886 -0.098253407 0.14373273 -0.059173014 -0.0038123969 0.18146275 -0.035285063 -0.20730923 0.018708466 0.19837363 -0.064296499 0.25632122 -0.026378728 -0.18096097 0.1326737 -0.014273542 0.18201911 -0.042621665 0.20622829 -0.16684411 0.11281295 0.091880344 0.017857449 -0.092731178 0.051572978 -0.12536849 -0.035768867 -0.10407402 0.17003396 -0.07780946 0.30191594 -0.068818435 0.08605253 -0.12467892 -0.066740088 -0.10343229 -0.12608606 -0.079118222 -0.082609557 -0.11826655 0.16059318 -0.035597704 -0.19072126 -0.10669161 -0.16892835 -0.051649399 -0.11905637 -0.011921661 -0.071617275 -0.056095447 0.27132356 -0.021184042 -0.062737152 0.14283933 0.00067391543 -0.031039409 -0.062328216 -0.071923584 -0.046258576 0.073805764 0.089789487 0.25693801 0.18720414 0.0080326367 -0.10000802 0.20212466 -0.12261137 0.14101502 0.13248411 0.09774448 -0.022844097 -0.074092627 0.078847781 0.2048457 0.097644545 0.16605003 -0.16109917 0.078556053 0.13453808 0.18942101 0.066150568 -0.34477347 0.065123044 0.13099664 -0.14251411 -0.25454041 -0.13755508 -0.14847435 -0.082643718 0.11490362 -0.15047623 0.018012993 0.072463542 0.32148758 -0.16300401 0.11170755 0.061509203 0.16713533 0.052789435 0.037856564
social 0.1254241 -0.09879414 0.15055721 -0.044300627 -0.015394717 0.13978153 -0.0040262821 -0.16430379 0.020783246 0.15851517 -0.08683373 0.23739237 -0.016122729 -0.16642016 0.16228294 -0.022521803 0.1716572 -0.098345391 0.20610069 -0.15870117 0.098171614 0.13756427 -0.018175442 -0.093714856 0.089200564 -0.12325334 -0.030363742 -0.12062041 0.19269039 -0.082791008 0.24043548 -0.076210417 0.088553675 -0.096265152 -0.10077555 -0.10550472 -0.11623152 -0.088172361 -0.10389839 -0.077991061 0.15792091 -0.054461263 -0.21065363 -0.10407582 -0.16618104 -0.074105643 -0.10651073 -0.070752263 -0.073573239 -0.096018836 0.31389806 -0.020182081 -0.072338745 0.19798699 -0.011099232 -0.00069427834 -0.0094160717 -0.061482247 -0.051841632 0.12719128 0.073372252 0.22759911 0.22327727 0.015807291 -0.070602767 0.21478046 -0.12025379 0.16649798 0.14735182 0.060399551 -0.014137141 -0.076300032 0.047681022 0.21863557 0.077762924 0.15485539 -0.17438449 0.025472196 0.13363549 0.21938032 0.064707056 -0.30618274 0.048483059 0.095580913 -0.13185093 -0.24595025 -0.14089641 -0.14420739 -0.10903899 0.11715547 -0.096222654 0.032495748 0.046941072 0.32677779 -0.15388449 0.10440724 0.091824703 0.17060414 0.065469652 0.04764612
be 0.12553422 -0.09389589 0.15379159 -0.056578271 -0.0089682322 0.14450175 -0.0029502288 -0.15926649 0.016792286 0.15913323 -0.083812773 0.2364907 -0.024949493 -0.17167121 0.16745988 -0.018948635 0.17433012 -0.091233514 0.20726816 -0.15625304 0.10885864 0.15186444 -0.013922716 -0.098460682 0.08705052 -0.11999523 -0.027950339 -0.1172412 0.19620855 -0.076431736 0.23921201 -0.076123118 0.089439273 -0.096781105 -0.095334351 -0.1084258 -0.12702878 -0.085552447 -0.11194386 -0.072212011 0.1518863 -0.049869414 -0.21541366 -0.11046549 -0.15694042 -0.071490824 -0.1019701 -0.085633576 -0.066804573 -0.10710154 0.32616186 -0.026780257 -0.072298847 0.19756153 -0.016599271 0.0038098476 -0.0036619948 -0.059216626 -0.055081256 0.12934899 0.07436797 0.22008766 0.220624 0.016326481 -0.07388667 0.21604894 -0.12837024 0.15885726 0.13700438 0.058866035 -0.023790421 -0.083688714 0.046823282 0.21962535 0.070361815 0.15312356 -0.18033268 0.017333688 0.12498508 0.2184971 0.070044704 -0.30553502 0.048969317 0.10755339 -0.13380292 -0.24533981 -0.14660162 -0.14454761 -0.11102284 0.1153461 -0.098339662 0.026243754 0.045695651 0.3287212 -0.1511215 0.11188229 0.099786632 0.17125767 0.059741348 0.050008204
political 0.12780583 -0.09689042 0.1487101 -0.0472725 -0.015269856 0.14367792 -0.0048045334 -0.16318202 0.01156561 0.15448622 -0.081997864 0.24004287 -0.025149837 -0.17291237 0.16467337 -0.014820084 0.17735223 -0.10105333 0.20279333 -0.16081747 0.099148117 0.14924315 -0.016591636 -0.088656716 0.081847355 -0.12598242 -0.025664046 -0.12195177 0.19551755 -0.079939343 0.23860224 -0.081372499 0.0947216 -0.092247441 -0.10166503 -0.10089871 -0.12275989 -0.082556173 -0.11038201 -0.081199698 0.15450142 -0.049770482 -0.2178946 -0.11402548 -0.16343282 -0.066134289 -0.1030679 -0.075228289 -0.078071229 -0.10156572 0.3177309 -0.021104315 -0.080881968 0.20138043 -0.015306684 -0.0020426626 -0.0045016045 -0.059292648 -0.054375205 0.13932016 0.080737658 0.22290264 0.22692199 0.018069146 -0.07442271 0.22426479 -0.12989669 0.16578254 0.14021166 0.052110285 -0.01227968 -0.085522391 0.054760262 0.21698423 0.073638268 0.16048978 -0.17377675 0.026186382 0.1284011 0.22511145 0.066967301 -0.30278295 0.051454231 0.10403518 -0.13298397 -0.25750095 -0.14145717 -0.13828053 -0.11725985 0.11369789 -0.10261133 0.036078598 0.043991435 0.3296653 -0.14915848 0.10546929 0.090314545 0.17720695 0.067951836 0.061897527
are 0.13197978 -0.086384252 0.15130487 -0.056394726 -0.009873284 0.13811398 -0.0097000059 -0.15757513 0.018585034 0.16035703 -0.087769523 0.23354046 -0.021429185 -0.17243418 0.16666758 -0.019585535 0.17023794 -0.098435655 0.20757206 -0.15430836 0.10443614 0.14299685 -0.012623277 -0.093151517 0.090943336 -0.11966009 -0.03170285 -0.11576337 0.18926032 -0.076890945 0.23660633 -0.079670146 0.084743276 -0.091881849 -0.099683851 -0.10787704 -0.11926994 -0.085708447 -0.11061425 -0.068917334 0.15816456 -0.056090515 -0.21479064 -0.11500488 -0.16027746 -0.075450622 -0.10251717 -0.085260741 -0.069343835 -0.10602495 0.32371372 -0.029697008 -0.074015982 0.19534232 -0.012508709 -0.003710174 0.0044265925 -0.05942975 -0.058899622 0.13658762 0.078454658 0.22567682 0.21716756 0.021883447 -0.069096722 0.22150411 -0.12634586 0.15912324 0.14534809 0.05217791 -0.018568307 -0.077740632 0.055918463 0.21841069 0.064760588 0.15045701 -0.17010939 0.020941729 0.13069205 0.22071683 0.068771832 -0.30820855 0.053070869 0.10148507 -0.13178876 -0.24917434 -0.14325994 -0.14276251 -0.11660849 0.11707536 -0.09774407 0.031461369 0.042168986 0.32856646 -0.14926574 0.10886068 0.097576357 0.17664807 0.062378451 0.054587252
but 0.1328841 -0.089527056 0.15970531 -0.046445355 -0.01170537 0.14515752 -0.0025747772 -0.16549742 0.017487874 0.15605831 -0.094094701 0.24727573 -0.015635131 -0.17717792 0.16605845 -0.021320814 0.17506604 -0.10145889 0.21342613 -0.16075572 0.10708001 0.15105645 -0.020934531 -0.096899517 0.088169701 -0.12837258 -0.031106386 -0.11468394 0.19494551 -0.081780367 0.23961897 -0.077312365 0.092107423 -0.099243097 -0.099719755 -0.1091166 -0.12435547 -0.096124858 -0.11573999 -0.073282309 0.15959287 -0.051003024 -0.22351477 -0.11913336 -0.16698512 -0.070412181 -0.10031533 -0.088265471 -0.070031196 -0.10831592 0.3336263 -0.026018668 -0.071933828 0.19668721 -0.0099839838 -0.00062271161 -0.0020929088 -0.054634962 -0.058309 0.14055713 0.078866623 0.23420575 0.23139642 0.013528239 -0.072366446 0.22292261 -0.12393054 0.17049927 0.14642952 0.052229598 -0.02085134 -0.078408398 0.053269926 0.22540575 0.072747722 0.16484442 -0.1762435 0.022968851 0.13763404 0.2237581 0.072444312 -0.31642887 0.053109895 0.10287666 -0.12943989 -0.26049438 -0.14075726 -0.14832911 -0.11977796 0.11558488 -0.10548098 0.033960201 0.043615121 0.34285668 -0.15693332 0.10636714 0.091425054 0.1868781 0.068411075 0.049623579
thought 0.13090821 -0.097070634 0.15119956 -0.046603739 -0.016118987 0.14244713 -0.0026543688 -0.1644043 0.021487951 0.15469252 -0.082193658 0.24237089 -0.019103535 -0.17512831 0.17522343 -0.022473928 0.1780913 -0.093296066 0.20763506 -0.16310927 0.098877534 0.15147215 -0.020616332 -0.093469799 0.087349012 -0.11959517 -0.030999148 -0.12537161 0.19764285 -0.082951292 0.23871338 -0.081504852 0.092748217 -0.088414699 -0.094648577 -0.11362217 -0.12335372 -0.088872619 -0.11114176 -0.073135078 0.1547558 -0.047408529 -0.22332649 -0.10650206 -0.16744089 -0.070331916 -0.10236184 -0.075541541 -0.075365618 -0.10044068 0.33071211 -0.020636868 -0.074520864 0.20738582 -0.0050956095 -0.0046817297 -0.0034597444 -0.066238269 -0.054376025 0.1360999 0.086386479 0.23119532 0.23065278 0.021700865 -0.083650365 0.2236042 -0.12625678 0.1617061 0.14606999 0.056939911 -0.019911595 -0.076916441 0.048558939 0.21705562 0.081201181 0.15402578 -0.17841445 0.02594767 0.12904 0.2200266 0.067174174 -0.30482224 0.04866102 0.109694 -0.12597263 -0.25844195 -0.13825041 -0.14023331 -0.11768472 0.11049726 -0.10061973 0.034027506 0.048259422 0.33958021 -0.15392812 0.10905285 0.093856178 0.17910096 0.064163059 0.061907295
libertarian 0.1227198 -0.086131275 0.14849095 -0.047134392 -0.0093198456 0.1495886 -0.0036114689 -0.16912474 0.0097344918 0.16341466 -0.090367369 0.23602867 -0.011623407 -0.17545885 0.16044678 -0.013994355 0.17539671 -0.10148714 0.21032318 -0.15772934 0.10868663 0.15377426 -0.0086839488 -0.098738119 0.091453686 -0.12449782 -0.02148734 -0.11073668 0.19183913 -0.082191952 0.23766516 -0.088577904 0.094738998 -0.086083278 -0.1062808 -0.10221532 -0.12326904 -0.0942 -0.10629822 -0.080132484 0.15343359 -0.047541924 -0.2181261 -0.12122437 -0.16222142 -0.068708308 -0.1032713 -0.085332774 -0.067354195 -0.10029868 0.32334623 -0.031900074 -0.076751463 0.20183818 -0.0078148851 -0.0032898306 0.005338802 -0.056749165 -0.060494866 0.13693567 0.073926449 0.23013896 0.22865346 0.021375719 -0.07313747 0.21812695 -0.12682848 0.16743818 0.14629079 0.059972234 -0.010070509 -0.079587333 0.044980921 0.2211089 0.074619383 0.16407704 -0.18052725 0.024926381 0.12795171 0.2297654 0.073426463 -0.30457881 0.058582228 0.097390421 -0.12504408 -0.25353715 -0.13799134 -0.1447158 -0.11713368 0.11108813 -0.10237214 0.028916068 0.0475007 0.33838412 -0.15587783 0.11003669 0.09934058 0.17591679 0.067413524 0.050085746
they 0.1230173 -0.090986006 0.15532815 -0.048366182 -0.014489337 0.14590582 -0.0025520506 -0.15465491 0.0090236925 0.15842479 -0.085139729 0.24280663 -0.020539369 -0.16798817 0.16625497 -0.018187843 0.17428394 -0.094445601 0.20128328 -0.16213448 0.10212991 0.14366634 -0.016405009 -0.096147381 0.089694001 -0.1152266 -0.024292909 -0.11779897 0.19248395 -0.083571069 0.23435089 -0.084529042 0.089553297 -0.094008081 -0.09868557 -0.11099026 -0.12334885 -0.08523187 -0.11157994 -0.073471315 0.15196253 -0.053530492 -0.21895391 -0.10953413 -0.15698723 -0.073709905 -0.10102999 -0.0828292 -0.068401195 -0.11129922 0.32777575 -0.019886686 -0.078235589 0.19478832 -0.012072262 -0.005073559 -0.0016966047 -0.050307609 -0.050189465 0.13908805 0.080559745 0.22604397 0.22366239 0.015890615 -0.077226862 0.22164172 -0.12642445 0.16421472 0.13973178 0.055939358 -0.020860266 -0.084152475 0.052990314 0.21963866 0.071214475 0.15405498 -0.18029478 0.025532924 0.12728457 0.22577214 0.07056307 -0.30242547 0.046897043 0.10149616 -0.13324887 -0.24713533 -0.14222462 -0.14825276 -0.11521979 0.11138774 -0.10364919 0.026454234 0.048464604 0.32958341 -0.14831811 0.11163983 0.097661898 0.1773378 0.068213269 0.049502201
this 0.13311389 -0.093384728 0.15402256 -0.051559664 -0.018655004 0.15040265 -0.0092665097 -0.15432732 0.013025894 0.15841165 -0.088587746 0.24625657 -0.019568047 -0.17692517 0.17174467 -0.025066093 0.16932498 -0.097635448 0.20392346 -0.15236388 0.10177228 0.14428054 -0.012347707 -0.097607836 0.090335399 -0.12404147 -0.032055292 -0.12234055 0.19121745 -0.076102048 0.24140583 -0.079259411 0.086033858 -0.098304763 -0.098105103 -0.10812696 -0.11812362 -0.094578981 -0.11438792 -0.074692667 0.15585765 -0.050703011 -0.21970093 -0.11206754 -0.16133383 -0.077329151 -0.10293741 -0.087173507 -0.068631284 -0.10661207 0.3188509 -0.019758241 -0.0696197 0.19583163 -0.0068200063 0.0013318382 0.0020178931 -0.052412625 -0.055917319 0.14223835 0.083632596 0.22010665 0.22520053 0.015215679 -0.069466382 0.22653684 -0.13264461 0.1675434 0.13790603 0.060318708 -0.022141937 -0.084858403 0.055630717 0.22153816 0.07344415 0.16207615 -0.18405303 0.018538075 0.13154925 0.22126679 0.065952271 -0.30878329 0.051946823 0.10100985 -0.13334261 -0.24667293 -0.14631632 -0.13860649 -0.11660491 0.11044967 -0.09676794 0.026773149 0.042557407 0.33208418 -0.15181121 0.11115209 0.089318611 0.17489755 0.064939648 0.050979283
have 0.12716828 -0.096392736 0.15070108 -0.047215633 -0.0091223838 0.14688216 -0.0089096203 -0.15648228 0.019303326 0.15150498 -0.083035894 0.23512758 -0.020972792 -0.16426666 0.16702938 -0.015098627 0.16584863 -0.10099358 0.2034895 -0.15089861 0.10427454 0.14773686 -0.011680609 -0.088602386 0.08860606 -0.11596413 -0.029285174 -0.1130819 0.18856046 -0.082034931 0.24181233 -0.084610626 0.090173028 -0.093775444 -0.098006353 -0.1066733 -0.12597862 -0.089375548 -0.111775 -0.074237868 0.15718679 -0.053441837 -0.21677507 -0.11184917 -0.16107507 -0.071553223 -0.1055293 -0.082563333 -0.070023343 -0.10138533 0.32393762 -0.022024814 -0.071727738 0.19749743 -0.0077685425 -0.0065648952 0.0019420942 -0.05648018 -0.049642798 0.13065547 0.072748765 0.22267613 0.22571939 0.015048874 -0.079093337 0.22282058 -0.12724641 0.15998092 0.14338136 0.051317029 -0.016043616 -0.080926895 0.056506 0.21071313 0.07346908 0.15442678 -0.17720008 0.017232966 0.13195689 0.22154982 0.06382402 -0.30466825 0.05087819 0.10560193 -0.12730259 -0.24793394 -0.14128754 -0.14056785 -0.11273895 0.11279555 -0.09568274 0.031297751 0.038352836 0.33355543 -0.15109999 0.11132664 0.094739348 0.1755017 0.062059391 0.04868152
society 0.11964399 -0.089950904 0.15268829 -0.052218579 -0.013843779 0.14286511 -0.0043241591 -0.15604222 0.012397694 0.14692995 -0.092155106 0.23334189 -0.016142061 -0.17266077 0.16640294 -0.018422427 0.16136098 -0.093604818 0.20215043 -0.15091023 0.096166186 0.14375411 -0.010965964 -0.098096691 0.08554966 -0.12075453 -0.032273121 -0.11873118 0.18518612 -0.075763687 0.23416768 -0.083239876 0.086508386 -0.094264001 -0.099647962 -0.09974882 -0.12344331 -0.083667196 -0.11142811 -0.071172066 0.15368658 -0.054514803 -0.20938268 -0.10867923 -0.15931444 -0.07290791 -0.10361337 -0.084370151 -0.066401936 -0.099982634 0.31363988 -0.023268016 -0.075800121 0.19721824 -0.013706243 -0.0033915818 0.0021784094 -0.050038911 -0.060471158 0.13090263 0.074709736 0.21643297 0.21694295 0.015095172 -0.073713176 0.2128114 -0.12493749 0.15779163 0.13723697 0.055755906 -0.019168057 -0.079735652 0.046684299 0.21560284 0.069363728 0.15519346 -0.17567292 0.021745281 0.12383452 0.21318719 0.063182548 -0.2948893 0.047703832 0.097572803 -0.12960692 -0.2420702 -0.1359565 -0.13606377 -0.11379746 0.11330606 -0.09164992 0.031263452 0.044902753 0.3250711 -0.14873233 0.1002866 0.096134812 0.17890611 0.062483851 0.057630412
such 0.13388003 -0.092705883 0.15725911 -0.051202811 -0.015855648 0.15192661 -0.0038254845 -0.16093314 0.0093648518 0.16446409 -0.095409483 0.24505135 -0.020303775 -0.17334898 0.17408378 -0.017098933 0.17575456 -0.096641362 0.20705399 -0.16672263 0.10261145 0.14738777 -0.019646639 -0.095307551 0.085939273 -0.12494721 -0.026467841 -0.1185928 0.19717295 -0.087031104 0.24571641 -0.081403486 0.095905825 -0.096299432 -0.10299619 -0.11140519 -0.12964666 -0.094281882 -0.11303791 -0.078857966 0.16589442 -0.053445436 -0.21657982 -0.1146815 -0.16153154 -0.079613715 -0.1019659 -0.083428577 -0.073514357 -0.10412349 0.33209091 -0.025153954 -0.074582741 0.20432618 -0.0092116827 -0.0028935301 -0.0022072573 -0.062048513 -0.060526654 0.14360738 0.077330187 0.2335158 0.22578889 0.020672701 -0.082271703 0.22744341 -0.13240731 0.17170307 0.14742938 0.056331206 -0.013484793 -0.08348719 0.052881889 0.2266383 0.070052862 0.16540828 -0.17986022 0.023222562 0.13305303 0.22724035 0.064867191 -0.31892911 0.052010633 0.10703498 -0.13544548 -0.26338828 -0.14152987 -0.14572744 -0.11490607 0.11585156 -0.099601075 0.024671344 0.048608914 0.34137338 -0.14978862 0.1097896 0.09888351 0.18717608 0.070533909 0.054796431
press 0.13233282 -0.098877534 0.15639919 -0.058807492 -0.011026969 0.14474349 -0.016088551 -0.15902974 0.016543228 0.16936964 -0.089420073 0.23195468 -0.029023716 -0.17957383 0.17958443 -0.018005149 0.18291853 -0.10072819 0.21815465 -0.17232491 0.11143135 0.14907247 -0.0080608577 -0.10160825 0.081734516 -0.1225138 -0.026116826 -0.12879556 0.19758376 -0.081596822 0.25297293 -0.080512576 0.087318569 -0.097463615 -0.090799384 -0.1067768 -0.11609234 -0.086154141 -0.11191951 -0.086688906 0.16241995 -0.05433413 -0.22992322 -0.11168111 -0.17005821 -0.070687607 -0.11442813 -0.074389867 -0.084403746 -0.096930519 0.31841743 -0.030850502 -0.080141194 0.21053433 -0.010888221 -0.0062357467 -0.0018856967 -0.060739011 -0.045323204 0.14580476 0.089047834 0.23894094 0.22852424 0.019906098 -0.093128294 0.22510771 -0.13656428 0.1677877 0.14664966 0.053848699 -0.0071219136 -0.090246059 0.04905083 0.21575505 0.078097604 0.15451944 -0.18063422 0.026666272 0.12898269 0.23141862 0.078325488 -0.31960672 0.055955075 0.10950326 -0.14351006 -0.26467118 -0.15101573 -0.14497229 -0.12736323 0.12978289 -0.11024692 0.038327832 0.057127312 0.33584172 -0.14820054 0.1047807 0.098148763 0.17862388 0.070767209 0.064479262
 0.1237125 -0.087389797 0.14622909 -0.049094521 -0.016959155 0.1527469 -0.0060779578 -0.16079105 0.01600332 0.16289032 -0.090686142 0.24352729 -0.019256983 -0.17267312 0.16964661 -0.015684044 0.17394839 -0.097832136 0.2067349 -0.15557647 0.10095166 0.14801849 -0.013083672 -0.092674904 0.084361993 -0.12034617 -0.033577353 -0.11609668 0.19261262 -0.082587726 0.23952907 -0.088191234 0.090674877 -0.09363772 -0.10351726 -0.10877778 -0.1239069 -0.084878631 -0.10757573 -0.080132306 0.15364762 -0.048545409 -0.21818154 -0.11612917 -0.16538391 -0.074278593 -0.10597704 -0.081737809 -0.074202932 -0.10756925 0.32129526 -0.019857509 -0.076884679 0.20594688 -0.015630679 -0.0034496726 -0.0069468166 -0.05652567 -0.053094499 0.13780078 0.082765348 0.22910325 0.22737457 0.020321401 -0.079259075 0.21983299 -0.12213144 0.17004156 0.13989207 0.053843018 -0.015290753 -0.085418306 0.046526708 0.21528721 0.072424255 0.1606662 -0.17947401 0.024406847 0.13369828 0.22071297 0.071132258 -0.3111653 0.050542571 0.1075907 -0.13603143 -0.25959238 -0.14302047 -0.14000058 -0.11304971 0.11551657 -0.10107002 0.033237424 0.041263081 0.33319846 -0.15638749 0.10342907 0.092556678 0.17364816 0.068281703 0.050730113
la 0.093915403 -0.094657369 0.14849685 -0.053114153 -0.0095626088 0.16816704 -0.024768166 -0.20038624 0.019354425 0.19039232 -0.07287965 0.25295809 -0.019408341 -0.1708511 0.14577743 -0.013484936 0.18197523 -0.051685985 0.20446983 -0.15956545 0.11256454 0.10686806 0.010471025 -0.092034526 0.065707996 -0.12731229 -0.032122806 -0.099694207 0.17071219 -0.07962168 0.28661326 -0.071339786 0.084342979 -0.11627744 -0.077612638 -0.10776355 -0.11898644 -0.083846599 -0.08745826 -0.10831396 0.15788449 -0.035796877 -0.19930585 -0.114356 -0.17013095 -0.053881012 -0.10934318 -0.029073119 -0.071817592 -0.062241513 0.28868538 -0.017639551 -0.0717858 0.15461919 -0.0097804461 -0.026173869 -0.04886071 -0.06711103 -0.042711716 0.08706104 0.089676172 0.24960808 0.1882685 0.014924306 -0.10284594 0.20098089 -0.1208059 0.14181608 0.13506392 0.088456348 -0.021630829 -0.081054747 0.064574756 0.21004246 0.098073363 0.15928926 -0.16369134 0.068499155 0.13116285 0.20111041 0.069633394 -0.33983219 0.057740513 0.12440564 -0.13860689 -0.25042933 -0.13764082 -0.14460713 -0.086818099 0.11656469 -0.13501495 0.027565179 0.067232549 0.32619604 -0.1573198 0.10631656 0.068582185 0.17016754 0.04971572 0.048014589
individual 0.12420746 -0.086281575 0.14048232 -0.045239978 -0.014141088 0.14074884 -0.0074593984 -0.15003632 0.011275103 0.14746328 -0.090646252 0.2327182 -0.014106968 -0.16187184 0.16027413 -0.019244052 0.16801493 -0.095930837 0.19886088 -0.15222622 0.092716902 0.13907933 -0.014259213 -0.087462008 0.082888536 -0.11625259 -0.025044486 -0.11522979 0.17905729 -0.078149229 0.22621907 -0.084765151 0.083645649 -0.084230781 -0.10103309 -0.098946385 -0.11959209 -0.081361331 -0.10630433 -0.073611841 0.15328099 -0.049558535 -0.20161822 -0.10621059 -0.16095671 -0.07029698 -0.096881278 -0.081704356 -0.072237536 -0.10314503 0.31128272 -0.01798931 -0.07703276 0.19583683 -0.0037877855 -0.0024836967 0.0050478275 -0.05159862 -0.052941177 0.13314696 0.075772211 0.21002157 0.20864823 0.014130133 -0.069679923 0.21239413 -0.11744984 0.15904173 0.14058527 0.048318498 -0.01678087 -0.081301384 0.045400057 0.2023543 0.070662543 0.14899325 -0.17489739 0.0158452 0.12614487 0.21633227 0.060779128 -0.29482606 0.043260295 0.09440317 -0.11813212 -0.23847336 -0.13125309 -0.13785811 -0.11314256 0.10319269 -0.095524102 0.02411803 0.042470582 0.31559181 -0.13681723 0.10523073 0.091312245 0.16708976 0.059335247 0.044825688
new 0.1289575 -0.091484055 0.15288265 -0.05185594 -0.0078954184 0.14873131 -0.0012187745 -0.16221 0.015761172 0.1558968 -0.083199553 0.23626263 -0.019100746 -0.17085055 0.16774303 -0.013144189 0.16747835 -0.088167757 0.20133783 -0.15638666 0.10141139 0.14116041 -0.010661269 -0.089137539 0.083257794 -0.1161802 -0.027560376 -0.11977956 0.19329001 -0.07394667 0.23872416 -0.075669765 0.086804785 -0.088041537 -0.093653426 -0.10568048 -0.11874025 -0.082462393 -0.10611781 -0.077146091 0.15086645 -0.05060187 -0.21034229 -0.10952101 -0.16035025 -0.075352073 -0.097400427 -0.0723444 -0.071036473 -0.10081238 0.31664062 -0.026849812 -0.070993409 0.19045065 -0.013343338 0.0022794767 -0.0054660272 -0.052119069 -0.056235544 0.13124825 0.080605917 0.22565076 0.22125411 0.020746971 -0.076788634 0.21363713 -0.12609954 0.16021959 0.13609394 0.060622513 -0.015161618 -0.078444958 0.045707107 0.21255004 0.072588563 0.15778433 -0.18314449 0.027131174 0.13132913 0.22184205 0.065030202 -0.30134472 0.054821156 0.099759392 -0.12158439 -0.2467168 -0.13879545 -0.14218123 -0.10972624 0.11121219 -0.092796519 0.024685634 0.049543671 0.32518461 -0.14635085 0.099069707 0.086617157 0.1800929 0.068180747 0.050250091
free 0.12675776 -0.091552198 0.15430461 -0.044416688 -0.014021688 0.14213577 -0.0078261923 -0.1643374 0.020339582 0.15036829 -0.085728705 0.24070281 -0.012842963 -0.16838719 0.16528019 -0.015754158 0.16669777 -0.09693189 0.21052714 -0.16082911 0.10870477 0.15091032 -0.011018783 -0.091071852 0.087083183 -0.12445991 -0.026737502 -0.11128797 0.18387266 -0.074032217 0.23968033 -0.084094644 0.088669941 -0.092306077 -0.095620185 -0.11129107 -0.12356973 -0.088975415 -0.10466751 -0.072154671 0.15323856 -0.057786051 -0.21541405 -0.10544314 -0.16521811 -0.073186845 -0.10647147 -0.076729685 -0.07530646 -0.10626492 0.31379861 -0.023029538 -0.078984864 0.19803733 -0.011093326 0.002729658 -0.0036496052 -0.056032624 -0.055253904 0.13463624 0.073947638 0.22535123 0.21348324 0.011174479 -0.07398767 0.22067599 -0.12895855 0.16868974 0.14482333 0.05273198 -0.01928563 -0.078946777 0.052961078 0.218419 0.074219942 0.15683214 -0.17364882 0.017342649 0.1273482 0.22103614 0.065628417 -0.30218565 0.048897006 0.10359254 -0.13060802 -0.24294128 -0.14401117 -0.1451723 -0.11223098 0.11316944 -0.099859729 0.02750434 0.041043747 0.324644 -0.15314957 0.11028658 0.097438782 0.17516547 0.058916941 0.052553937
ideas 0.12683362 -0.087288201 0.14365523 -0.044070795 -0.014504603 0.13967693 -0.0027663112 -0.16251665 0.012883116 0.15046319 -0.088315345 0.24010389 -0.018641304 -0.16558845 0.16526692 -0.013808906 0.16646735 -0.090588354 0.20114519 -0.1586713 0.1069557 0.14391086 -0.0097137792 -0.09029945 0.082128175 -0.11784195 -0.027968822 -0.12068497 0.19148405 -0.080428198 0.24188679 -0.085843861 0.085436553 -0.087384954 -0.096448824 -0.11102697 -0.1159935 -0.091679715 -0.10469007 -0.075544275 0.14813979 -0.052801475 -0.21606205 -0.11477201 -0.15713665 -0.068101212 -0.10294624 -0.071420945 -0.070927732 -0.094615564 0.31242728 -0.022732144 -0.074850902 0.20285235 -0.0071692024 -0.0032402629 0.0038156307 -0.062278159 -0.053754129 0.13632068 0.07347963 0.22682007 0.22069924 0.019818978 -0.076914459 0.22109284 -0.12814429 0.16785128 0.14495708 0.060993962 -0.014311332 -0.074879415 0.047467254 0.22039086 0.078545377 0.15886709 -0.1798182 0.025055563 0.12577023 0.22341324 0.060973611 -0.30901855 0.054834429 0.099820048 -0.12910981 -0.25356585 -0.13389668 -0.14481382 -0.11804701 0.10817929 -0.099758275 0.023902873 0.042903237 0.32959533 -0.14861891 0.10266215 0.092735976 0.17816497 0.057969984 0.055272747
history 0.12368271 -0.089423016 0.15010029 -0.050592065 -0.0067740288 0.14338937 -0.0040585976 -0.16341679 0.014397087 0.15935346 -0.081500769 0.23533553 -0.018516649 -0.17584886 0.169912 -0.010236551 0.17929031 -0.093799129 0.20564911 -0.16273969 0.10617055 0.15557662 -0.016670911 -0.095284596 0.081837744 -0.12373048 -0.018883519 -0.1206698 0.19930694 -0.080181539 0.23640272 -0.082313903 0.084875509 -0.085356236 -0.10476411 -0.10981687 -0.11551193 -0.090327218 -0.11220437 -0.076571196 0.15320434 -0.046679623 -0.21333881 -0.12285581 -0.16096982 -0.069418803 -0.10709421 -0.08224234 -0.079068094 -0.096999854 0.33173472 -0.032472648 -0.0802361 0.2108248 -0.011874876 -0.0054886192 0.0022094743 -0.053551752 -0.057771076 0.13543254 0.076323666 0.22741163 0.23129335 0.016970068 -0.076376542 0.22434364 -0.13194594 0.17192478 0.14552893 0.063658006 -0.0088095898 -0.07995037 0.047680691 0.22103009 0.078545563 0.16091622 -0.18961884 0.019272953 0.13274199 0.23069675 0.068854891 -0.30790287 0.054405209 0.096940123 -0.12757351 -0.24911664 -0.14022659 -0.14457829 -0.12313818 0.11846872 -0.1064679 0.027058532 0.043330736 0.34074789 -0.15563692 0.10752122 0.09737657 0.1787935 0.060582355 0.058906432
these 0.12297823 -0.085458003 0.14896417 -0.048472252 -0.0099007059 0.13859816 -0.0088022752 -0.15792137 0.016072005 0.15212038 -0.09137632 0.23862314 -0.019505601 -0.17314777 0.16027106 -0.024945857 0.16584727 -0.091333225 0.19851848 -0.15650091 0.1035024 0.14241798 -0.016389597 -0.091895729 0.088376381 -0.11699448 -0.026297947 -0.11478424 0.19031821 -0.076698847 0.23976699 -0.078525752 0.083254948 -0.094088264 -0.097010761 -0.10315686 -0.11877114 -0.090380371 -0.10596278 -0.073882893 0.14989664 -0.053283468 -0.21391585 -0.11409137 -0.15881033 -0.074302547 -0.1049239 -0.082572006 -0.068019725 -0.10063862 0.32142979 -0.020457065 -0.07696408 0.19657476 -0.006109979 -0.00016760481 0.0010413529 -0.048787914 -0.056318719 0.12858318 0.078917868 0.21988748 0.22148918 0.018522957 -0.076141685 0.21470986 -0.12722744 0.15881096 0.14391792 0.051592551 -0.019362221 -0.080585212 0.045640226 0.21121986 0.072239198 0.15508971 -0.17887802 0.018508323 0.12954946 0.21881142 0.062457006 -0.29999667 0.045725439 0.10499869 -0.12253682 -0.24826439 -0.13819186 -0.14039323 -0.11707432 0.10868678 -0.096591331 0.029656339 0.042380974 0.32670212 -0.15110619 0.10650118 0.089442819 0.17880899 0.066947021 0.054184172
against 0.12606353 -0.088838905 0.15354615 -0.053568982 -0.018330319 0.14223309 -0.00099071243 -0.15937835 0.015655695 0.15763003 -0.084081627 0.23767826 -0.017570613 -0.17443645 0.16443305 -0.01531765 0.17885828 -0.091532305 0.21320686 -0.16512148 0.099831358 0.1474857 -0.017730808 -0.092136607 0.084741935 -0.12290199 -0.022824602 -0.12214933 0.1876308 -0.08116252 0.2429969 -0.085825764 0.094305061 -0.096768245 -0.095973022 -0.1061889 -0.12230877 -0.094057873 -0.11091007 -0.080846705 0.15786329 -0.056951988 -0.21530057 -0.11773858 -0.15979186 -0.072439097 -0.10662349 -0.079005361 -0.068333276 -0.10043898 0.32172927 -0.024928257 -0.078775167 0.20066287 -0.00864664 -0.00075001491 0.0047231736 -0.050325841 -0.060441468 0.13657528 0.075277708 0.23013732 0.21835163 0.018675117 -0.079644382 0.22554024 -0.1254359 0.17197971 0.14379466 0.049504098 -0.018743338 -0.07920254 0.052640758 0.21309699 0.077825509 0.15348245 -0.18045287 0.019274218 0.13349086 0.2195687 0.07316462 -0.30876234 0.053907149 0.10731614 -0.1309814 -0.25247478 -0.14129369 -0.14868779 -0.11627096 0.11952277 -0.094848774 0.031537756 0.046142679 0.33135676 -0.15215996 0.10478804 0.095335253 0.18458715 0.067915313 0.049685918
international 0.1256528 -0.088228136 0.15826836 -0.051715121 -0.017979713 0.1406779 -0.0088942973 -0.16245934 0.010112307 0.15792544 -0.087075703 0.24025361 -0.019980427 -0.16964525 0.17360342 -0.016455434 0.1718841 -0.099643357 0.20775834 -0.16151647 0.10269456 0.1474292 -0.021295408 -0.092233486 0.080796108 -0.12091556 -0.028629981 -0.12301628 0.1976352 -0.079220943 0.24544759 -0.087664843 0.089810491 -0.088742778 -0.10552467 -0.1100862 -0.12648819 -0.085944317 -0.10768185 -0.071569271 0.15883467 -0.056106832 -0.21518005 -0.11653904 -0.17256719 -0.071729578 -0.10076699 -0.081149101 -0.075546011 -0.10828332 0.33153957 -0.029125962 -0.073590569 0.19894058 -0.01445611 -0.0065586548 -0.0031190177 -0.057599194 -0.056487862 0.13222213 0.083132431 0.22654098 0.22471243 0.023505185 -0.070810542 0.21924026 -0.12679763 0.1733975 0.14496765 0.061177284 -0.02209682 -0.07663089 0.05102675 0.21628182 0.072525397 0.15882923 -0.18479826 0.027708126 0.13322231 0.2257653 0.061818488 -0.31092015 0.053691089 0.098919049 -0.13596776 -0.25365072 -0.14227705 -0.14330362 -0.11482313 0.11114339 -0.099252388 0.028851939 0.045272924 0.33240312 -0.15120441 0.10287244 0.092406824 0.18306459 0.065998599 0.058443002
other 0.13040902 -0.089440905 0.15523712 -0.049208459 -0.012146757 0.15176128 0.00096534914 -0.16618133 0.014293598 0.16224103 -0.092497252 0.24213165 -0.022075942 -0.17915168 0.16606164 -0.023518071 0.17288888 -0.097246401 0.21290478 -0.16174528 0.10691905 0.14764477 -0.012206673 -0.092369832 0.088595547 -0.12695085 -0.029225215 -0.11433758 0.1954437 -0.083054885 0.23948285 -0.08513172 0.09308935 -0.1007108 -0.10352982 -0.11158073 -0.12609518 -0.088591173 -0.1128388 -0.07059937 0.15753484 -0.058119554 -0.21786498 -0.11667237 -0.16303498 -0.082010418 -0.11011966 -0.082059897 -0.069047682 -0.10589503 0.32355011 -0.025966592 -0.080890022 0.20503169 -0.014741669 -0.003549055 0.00040048212 -0.058382839 -0.0529599 0.14033283 0.078230247 0.22739331 0.22477685 0.017404662 -0.074592821 0.22960547 -0.13287228 0.17300363 0.14644058 0.054801896 -0.017221998 -0.0843914 0.053753223 0.21909651 0.068606615 0.16353963 -0.17812993 0.021004636 0.1299289 0.22348729 0.072195686 -0.31414619 0.05033759 0.10244383 -0.12916854 -0.25826311 -0.14275083 -0.14535077 -0.11313981 0.11101083 -0.10422569 0.028414961 0.048363514 0.33945101 -0.15305319 0.10425606 0.098894589 0.17978346 0.060932618 0.054545086
within 0.13259184 -0.097424172 0.15105389 -0.051014796 -0.01614414 0.14652607 -0.011309891 -0.16681667 0.01879341 0.16162154 -0.093563475 0.24930267 -0.015410158 -0.1711483 0.17335418 -0.016359376 0.17633206 -0.093884759 0.21110955 -0.1560363 0.1104161 0.14553787 -0.017803632 -0.097546518 0.089802712 -0.12022909 -0.030341594 -0.12023151 0.19082125 -0.080631047 0.24634588 -0.079190612 0.092697784 -0.099686921 -0.10247958 -0.11254351 -0.12525675 -0.091888465 -0.11606605 -0.078021578 0.15759626 -0.055348828 -0.22123693 -0.10849505 -0.17012483 -0.076549411 -0.10783757 -0.079317138 -0.069537088 -0.10180557 0.32218415 -0.021639297 -0.073794365 0.20510571 -0.014067129 0.0032589165 -0.0042983592 -0.062264025 -0.063070878 0.13750544 0.083338648 0.22522314 0.22407003 0.012541339 -0.082071707 0.21982145 -0.12482566 0.17306052 0.14995898 0.056498125 -0.013980906 -0.077819049 0.048311807 0.21789348 0.07023567 0.15557961 -0.18751329 0.027147822 0.13075916 0.22266257 0.067880817 -0.30809811 0.0543379 0.099406533 -0.12960635 -0.25564593 -0.1394731 -0.14925365 -0.12037854 0.11971604 -0.10538398 0.029512066 0.04015746 0.33470362 -0.14935291 0.1043213 0.099832095 0.18326871 0.070992418 0.057726439
individualist 0.13007061 -0.098562442 0.15514721 -0.049255803 -0.016493069 0.15157291 -0.0073973266 -0.1658145 0.017990245 0.15403202 -0.086693585 0.2375551 -0.023041341 -0.17473197 0.17104755 -0.021944601 0.16832295 -0.093480788 0.21116878 -0.15901165 0.10415834 0.15120685 -0.015602065 -0.088015668 0.084150128 -0.11639434 -0.031492252 -0.121047 0.19264936 -0.080901735 0.24677834 -0.080282472 0.085985601 -0.098906934 -0.10025388 -0.10883065 -0.12009032 -0.084078006 -0.11317889 -0.082056694 0.15895995 -0.049074341 -0.21813051 -0.11342835 -0.16355813 -0.069704346 -0.099878915 -0.070298806 -0.071311839 -0.098536588 0.31826326 -0.024279559 -0.076238357 0.19799291 -0.0097617898 0.00013012844 -0.009074444 -0.059097681 -0.051791511 0.1382156 0.085669748 0.22675548 0.22189057 0.020666923 -0.080041736 0.22051111 -0.12388975 0.16531163 0.14393839 0.054255847 -0.019961704 -0.078189448 0.047238935 0.22095197 0.076873191 0.16102362 -0.17640507 0.026976455 0.13579622 0.22579497 0.071525872 -0.31004137 0.049457204 0.10658608 -0.13022247 -0.25054434 -0.14241722 -0.13846625 -0.1101871 0.12236089 -0.10423934 0.036919903 0.048408706 0.3303386 -0.15339585 0.10163143 0.097586282 0.17367759 0.066084735 0.063094057
also 0.13093916 -0.095144235 0.15766396 -0.050790004 -0.0098652514 0.14619127 -0.011074061 -0.16094755 0.017297873 0.16689348 -0.08613985 0.24560235 -0.0166538 -0.17250243 0.16694185 -0.020027118 0.17215252 -0.10206972 0.21058434 -0.16575623 0.1068776 0.15017456 -0.021545237 -0.10013383 0.087780453 -0.12308744 -0.03163106 -0.12591824 0.20031084 -0.085873269 0.24830289 -0.084680498 0.088635772 -0.10065027 -0.10689811 -0.11324299 -0.1248347 -0.091330029 -0.11268332 -0.078965805 0.16493633 -0.05815703 -0.21866855 -0.11917724 -0.16761881 -0.078863598 -0.10396916 -0.086198539 -0.078635134 -0.1030812 0.33357888 -0.024560312 -0.071578346 0.20532086 -0.012277294 -0.0069562988 0.0028929308 -0.059561994 -0.060992204 0.14215308 0.083034188 0.22889118 0.225302 0.022465533 -0.075364351 0.22367302 -0.12788796 0.16630508 0.14229999 0.05912428 -0.017458841 -0.08167389 0.057161368 0.21847227 0.075677752 0.15817523 -0.18955675 0.019425089 0.13477059 0.23213416 0.071157329 -0.31441122 0.050561726 0.10350353 -0.13236734 -0.26074961 -0.14907889 -0.15157875 -0.11913675 0.11363354 -0.10592062 0.027151814 0.044616479 0.34411165 -0.15157679 0.10577868 0.10149832 0.1806916 0.069736406 0.050900258
philosophy 0.12351775 -0.090692997 0.14797027 -0.04870744 -0.011529735 0.1380017 -0.004820961 -0.15674715 0.0098817879 0.15090987 -0.086538173 0.23114328 -0.018925285 -0.16352476 0.15676551 -0.023891039 0.16510141 -0.091487989 0.2013406 -0.14962006 0.10308714 0.13701916 -0.01479674 -0.092472434 0.086739294 -0.11840735 -0.029922171 -0.11476431 0.18807364 -0.078325927 0.23081662 -0.073112354 0.087962463 -0.086496376 -0.094520293 -0.10026476 -0.11338494 -0.080396123 -0.10681327 -0.076217234 0.14884706 -0.055159774 -0.20140539 -0.10717663 -0.15489265 -0.0756469 -0.10132916 -0.074135274 -0.070058838 -0.10172062 0.31392443 -0.026868049 -0.075377606 0.1946281 -0.0083447201 0.00045179846 0.0025567426 -0.050271221 -0.049158059 0.13076314 0.071769156 0.21739849 0.21925253 0.01900702 -0.077016711 0.20906945 -0.12693889 0.15908161 0.13982004 0.050301611 -0.016727814 -0.076706745 0.051559191 0.21198323 0.067154221 0.15182008 -0.17036824 0.020036511 0.12182938 0.21204081 0.069598265 -0.2992267 0.051663544 0.10258316 -0.121608 -0.23861493 -0.14114837 -0.13299204 -0.1121694 0.11339182 -0.1010151 0.032119703 0.04229898 0.3189511 -0.14291826 0.10514835 0.090320751 0.16876651 0.063587748 0.049561732
all 0.12859555 -0.09285409 0.15050475 -0.052951805 -0.010658282 0.14401388 -0.0027230023 -0.15946975 0.0090007149 0.15776467 -0.085205711 0.23846252 -0.018002992 -0.16056624 0.15988937 -0.020493193 0.17282128 -0.088753119 0.20130809 -0.15839662 0.10317924 0.14555725 -0.014718399 -0.096701048 0.084665962 -0.116662 -0.021498626 -0.12044369 0.19064984 -0.077773131 0.23373321 -0.078323565 0.086562917 -0.090326376 -0.094205923 -0.11071233 -0.12513015 -0.089241743 -0.10631888 -0.068905242 0.15160529 -0.052389245 -0.21108499 -0.10804759 -0.15626545 -0.073710099 -0.10644872 -0.080821283 -0.071071826 -0.10633098 0.31162807 -0.021408375 -0.078283228 0.19138555 -0.01126628 -0.00011892804 0.0042597819 -0.056891076 -0.050842956 0.13056022 0.074169725 0.21915327 0.21877132 0.012300421 -0.071149684 0.21577846 -0.12477003 0.16427073 0.13588715 0.053720389 -0.022111226 -0.082152344 0.048145436 0.21137848 0.068550095 0.15630504 -0.17107169 0.018553659 0.12607211 0.21861662 0.064280823 -0.30291018 0.051181074 0.097125016 -0.12205313 -0.24538526 -0.14283207 -0.14064388 -0.10927509 0.10989317 -0.10024487 0.022134945 0.045827605 0.31923059 -0.14962418 0.10734706 0.092666514 0.17692839 0.062643617 0.05225369
may 0.12621826 -0.099035829 0.15593594 -0.0523654 -0.018649131 0.14707786 -0.0066616107 -0.16067342 0.012819902 0.15780228 -0.087151401 0.24827909 -0.0218092 -0.16881506 0.16739926 -0.022693617 0.17755099 -0.095192708 0.20683208 -0.15453406 0.10632484 0.15278557 -0.015066211 -0.096544057 0.092079051 -0.1268544 -0.034007125 -0.11354924 0.19253443 -0.085194342 0.25096086 -0.084845074 0.093127184 -0.10163233 -0.097718492 -0.10965708 -0.12223361 -0.086164579 -0.11418423 -0.079383597 0.15599163 -0.054790035 -0.21337001 -0.11412169 -0.16871412 -0.078507394 -0.10966493 -0.084281199 -0.068513751 -0.10597574 0.32359686 -0.028626611 -0.081502557 0.19939044 -0.0066431765 0.0035100027 0.0019102569 -0.052043069 -0.056757677 0.13508013 0.082967453 0.23160225 0.22764817 0.023142263 -0.080744401 0.2225357 -0.13254675 0.16777417 0.14013155 0.056045361 -0.014618816 -0.078762941 0.0502153 0.21668249 0.076830454 0.15707937 -0.17816095 0.023775864 0.13608161 0.23040117 0.069637269 -0.30783811 0.05004802 0.10397419 -0.12654057 -0.25258332 -0.14139964 -0.14875703 -0.11968692 0.11699154 -0.10250638 0.028394105 0.046298988 0.33288813 -0.14853421 0.10872241 0.092278279 0.18052153 0.067888409 0.052476197
some 0.12535371 -0.095338807 0.15452029 -0.054837085 -0.017374925 0.15175886 -0.0016302679 -0.15833832 0.020612242 0.16110249 -0.084157668 0.24232946 -0.018074539 -0.17805231 0.17146826 -0.019499529 0.17386489 -0.091014273 0.21459366 -0.15656449 0.10079849 0.14370549 -0.016960446 -0.091942877 0.08658009 -0.1182128 -0.032785781 -0.11564944 0.19601779 -0.079851002 0.24102369 -0.078706793 0.088795401 -0.093053862 -0.10215354 -0.10313709 -0.1246613 -0.08616285 -0.10832532 -0.073998168 0.15551874 -0.050372712 -0.21197362 -0.10918207 -0.16691238 -0.078043342 -0.10317142 -0.075076789 -0.073611967 -0.10551206 0.31873465 -0.022476433 -0.074411139 0.20039997 -0.012871209 -0.0068780906 -0.0044201622 -0.052745868 -0.054336481 0.13974196 0.079691842 0.23012497 0.22789828 0.022362176 -0.080094695 0.21943936 -0.12833673 0.16342713 0.14418884 0.06188608 -0.014348438 -0.076463692 0.054592274 0.21858294 0.067847162 0.15617122 -0.17523934 0.025073297 0.13359426 0.22457401 0.065431952 -0.30717641 0.045488197 0.098729759 -0.12856238 -0.25696054 -0.14256267 -0.14102279 -0.11201982 0.1206198 -0.099818833 0.033479206 0.047759824 0.3315464 -0.15735894 0.10948003 0.092933521 0.18171719 0.067242838 0.052672233
" 0.13194957 -0.093845882 0.16228437 -0.057995446 -0.016105291 0.15446492 -0.0081655951 -0.16562299 0.010004153 0.15895206 -0.087343901 0.25716344 -0.014617653 -0.17564911 0.16949424 -0.016408388 0.18291551 -0.093885735 0.21307175 -0.16782708 0.1075549 0.15273044 -0.015858144 -0.096157178 0.085679665 -0.12547912 -0.035274599 -0.11584229 0.1982425 -0.081075363 0.25364429 -0.083954565 0.088877767 -0.099039733 -0.10028732 -0.10648209 -0.12262353 -0.086899906 -0.11731439 -0.082622364 0.16001152 -0.060026754 -0.22653019 -0.11791615 -0.16458991 -0.082024664 -0.10751301 -0.08647155 -0.071312286 -0.11004115 0.33081964 -0.018872149 -0.08218497 0.20366645 -0.018873423 -0.0010585317 -0.0025434869 -0.053298313 -0.057373859 0.14013597 0.079044521 0.23154564 0.22806455 0.01449132 -0.082672752 0.22392769 -0.12947175 0.17026334 0.15310679 0.057578437 -0.019104885 -0.082896978 0.048603155 0.22398448 0.080100261 0.16680527 -0.18423589 0.019215122 0.13620836 0.22919378 0.067314789 -0.31700397 0.052196641 0.10380228 -0.1402549 -0.26747623 -0.14546145 -0.15020551 -0.12555264 0.11373101 -0.10500045 0.02657415 0.04676713 0.33974648 -0.16250411 0.10578648 0.090279311 0.18953457 0.0623427 0.061483264
movements 0.12954706 -0.091291755 0.15421855 -0.048582856 -0.018550148 0.14831419 -0.0017874999 -0.16646284 0.012165124 0.16134226 -0.088604845 0.25141141 -0.022428771 -0.17749083 0.17232589 -0.01420588 0.18430166 -0.097516045 0.21009827 -0.17183916 0.11628959 0.15961184 -0.016952753 -0.10120858 0.083516471 -0.12725227 -0.0255992 -0.12198172 0.19898811 -0.080230296 0.24985595 -0.091102399 0.097081661 -0.097915992 -0.10468048 -0.11627755 -0.12904482 -0.089088596 -0.10946858 -0.081581444 0.16245882 -0.056260392 -0.22409788 -0.12326037 -0.16902441 -0.079465985 -0.1071611 -0.090782113 -0.073835343 -0.104497 0.33346942 -0.022454984 -0.075656407 0.2082023 -0.015401383 -7.7592878e-05 0.0066429158 -0.056407385 -0.052705646 0.13910662 0.078196943 0.23992084 0.23488615 0.020590989 -0.074614383 0.23381953 -0.13494356 0.17323245 0.1547451 0.063711353 -0.018771639 -0.087516852 0.05425828 0.2336356 0.073803194 0.16295183 -0.18925901 0.018061733 0.1296481 0.22927162 0.069229238 -0.31675628 0.050114181 0.10679466 -0.13974552 -0.26349539 -0.15256068 -0.14993779 -0.11916044 0.11913086 -0.10478316 0.033735886 0.041914076 0.3439272 -0.15739721 0.11484829 0.097815089 0.18056875 0.06118216 0.062885121
el 0.10110803 -0.095421389 0.13949613 -0.050932679 -0.0099049648 0.1728358 -0.028959937 -0.19675931 0.016949523 0.18860984 -0.076308057 0.25380763 -0.02525709 -0.1776782 0.14120972 -0.0084602768 0.17792588 -0.059874162 0.20851909 -0.16382614 0.11485735 0.1107703 0.01402199 -0.096790582 0.063135482 -0.12121599 -0.034024548 -0.10114159 0.17888986 -0.074679881 0.28713572 -0.078581192 0.088076696 -0.10912593 -0.076176532 -0.1056479 -0.12559761 -0.088999629 -0.094876289 -0.10822046 0.15714529 -0.03263855 -0.19121458 -0.11299318 -0.16262159 -0.061305124 -0.11654875 -0.026728235 -0.069622703 -0.068353198 0.28939027 -0.017335221 -0.063507318 0.15336284 -0.0041362634 -0.01918429 -0.042285394 -0.061592065 -0.052505203 0.089773901 0.08141648 0.24407306 0.19607137 0.011271898 -0.099318564 0.20192182 -0.12183816 0.14738059 0.13172705 0.08463712 -0.023948127 -0.082579032 0.07517866 0.20624286 0.096598916 0.16270687 -0.16870663 0.064870983 0.13114838 0.20235461 0.062809952 -0.3367047 0.06386862 0.12497202 -0.14297923 -0.24988712 -0.14327627 -0.14211148 -0.095930643 0.11785948 -0.13749211 0.027450722 0.065672562 0.32686096 -0.15690398 0.10333005 0.07022766 0.17260642 0.05378709 0.038528834
isbn 0.12082992 -0.092400499 0.14827985 -0.048615053 -0.013484842 0.15475217 -0.014564718 -0.17041738 0.022708602 0.15984058 -0.082096919 0.23872174 -0.025433298 -0.17104274 0.17685351 -0.015247161 0.18035772 -0.10223871 0.21312965 -0.16765656 0.104274 0.14722063 -0.013738927 -0.093231581 0.081835099 -0.12507452 -0.023552939 -0.1217752 0.1950448 -0.081016138 0.24243578 -0.076747797 0.096100822 -0.093899496 -0.091432273 -0.10266839 -0.12347799 -0.093677059 -0.11048908 -0.083190903 0.16077228 -0.050862808 -0.2220341 -0.11972012 -0.17435785 -0.063985988 -0.11415502 -0.065829225 -0.083837546 -0.10520935 0.32730103 -0.02675079 -0.084821478 0.20486739 -0.020324919 0.0021545559 -0.0068625351 -0.061581943 -0.050762251 0.13476877 0.078011863 0.23099643 0.23016126 0.012119764 -0.091061465 0.22048642 -0.13753347 0.17025395 0.15385436 0.056178957 -0.016646868 -0.089740433 0.05016252 0.22029223 0.074539661 0.15508607 -0.17977257 0.021088379 0.13055542 0.23520172 0.077910818 -0.3209452 0.061527289 0.10197354 -0.13730356 -0.25752521 -0.15304188 -0.14480497 -0.12784465 0.1226941 -0.10288937 0.030776616 0.051557068 0.34437788 -0.15350991 0.10813191 0.096569151 0.17991187 0.058730211 0.063254781
who 0.13153501 -0.092846379 0.14735705 -0.05082234 -0.0092021078 0.15081839 -0.0065456261 -0.15949835 0.014693746 0.15152615 -0.088496208 0.24531162 -0.022971597 -0.17045552 0.16738625 -0.025621427 0.17221308 -0.095417485 0.20748019 -0.16185379 0.10416451 0.14412962 -0.012293475 -0.09360446 0.082954213 -0.11416058 -0.02604877 -0.12086477 0.19031493 -0.084423214 0.23473176 -0.077256374 0.09074901 -0.094336681 -0.095247336 -0.10290289 -0.12658644 -0.091731884 -0.10722961 -0.076342091 0.15708534 -0.0561192 -0.21468365 -0.11295293 -0.1581496 -0.074415401 -0.10512978 -0.077972181 -0.073091999 -0.10126043 0.31833509 -0.0202509 -0.073170543 0.20078431 -0.015148642 0.0034955214 0.0040716105 -0.05427254 -0.061330192 0.13289307 0.077414125 0.22960097 0.22134164 0.019105414 -0.078869134 0.21594968 -0.12977506 0.15806285 0.14552765 0.057789497 -0.01530283 -0.080926664 0.04862025 0.21370569 0.064975776 0.15665703 -0.17272571 0.027440341 0.13464619 0.21503979 0.063645072 -0.30258337 0.053639743 0.10552114 -0.13153397 -0.2516948 -0.13713156 -0.13918112 -0.11565588 0.1122455 -0.096921466 0.027411353 0.046094555 0.33301491 -0.15009633 0.11037926 0.096658491 0.17785217 0.06251312 0.046198022
had 0.13215604 -0.098704889 0.15035488 -0.057667885 -0.0093236873 0.15051316 -0.0071768132 -0.16037042 0.013611983 0.16681622 -0.095668525 0.24818289 -0.018578835 -0.16795164 0.1740358 -0.019239528 0.17721111 -0.097526647 0.21567972 -0.16029155 0.10522308 0.15597832 -0.017081887 -0.1009724 0.087740585 -0.12678218 -0.030384762 -0.11979157 0.19272579 -0.087182567 0.24231426 -0.079688661 0.091533646 -0.091617629 -0.10148713 -0.11022173 -0.12587215 -0.091690227 -0.11035729 -0.076436155 0.16313152 -0.051924702 -0.21515833 -0.11714852 -0.17123865 -0.080046758 -0.10156763 -0.081778489 -0.069303274 -0.10618955 0.33327562 -0.029356671 -0.080438733 0.20365223 -0.0070716068 -0.0053566163 0.00103854 -0.057872266 -0.055011965 0.13595909 0.075984947 0.23044811 0.23138134 0.016921872 -0.073786132 0.22689256 -0.12853637 0.16922447 0.14076912 0.061185148 -0.016499842 -0.081941567 0.057553422 0.2171409 0.068587609 0.16607049 -0.18305814 0.024441419 0.13275848 0.2249109 0.072887085 -0.30855551 0.054482743 0.10208619 -0.12966263 -0.25684622 -0.14852163 -0.14726393 -0.11885308 0.11053126 -0.10889501 0.024917135 0.048949827 0.34267849 -0.14995126 0.10837829 0.093690135 0.17691585 0.06961561 0.059879672
has 0.12350815 -0.090151951 0.14746302 -0.054349057 -0.01500151 0.13947536 -0.0046894667 -0.16056927 0.019233806 0.15805182 -0.090511777 0.22954483 -0.016323829 -0.16334783 0.16828883 -0.019165112 0.170526 -0.099059619 0.20478103 -0.14836235 0.10579769 0.14694749 -0.016041813 -0.0895999 0.083025485 -0.11523874 -0.028002499 -0.11501397 0.18136053 -0.075827494 0.22988866 -0.083677053 0.083029643 -0.091042481 -0.10158645 -0.10804518 -0.11966179 -0.085785352 -0.10220424 -0.072220825 0.15740989 -0.047458868 -0.20978592 -0.10275806 -0.162755 -0.071239531 -0.099815629 -0.082390167 -0.071471557 -0.10615318 0.31866688 -0.02875429 -0.073817737 0.19902058 -0.015705453 0.0022112601 -0.00023546912 -0.050908487 -0.051956907 0.13271824 0.078023113 0.22240002 0.22244473 0.015600281 -0.074940756 0.21362142 -0.12901032 0.15567067 0.14212188 0.049975507 -0.012844863 -0.072999574 0.0478957 0.21541883 0.073609315 0.15936084 -0.17004506 0.027855214 0.13136102 0.21943749 0.066248246 -0.29468024 0.044284787 0.10222612 -0.13098884 -0.2469267 -0.14219007 -0.13692826 -0.11333767 0.1087631 -0.10017794 0.033384062 0.043053299 0.32416552 -0.1505141 0.10219186 0.0926596 0.17101566 0.059667241 0.04763997
during 0.13063644 -0.088035606 0.15488279 -0.048870251 -0.013874373 0.14995985 -0.0033150068 -0.16363062 0.011825536 0.16170187 -0.091777943 0.24261318 -0.018163921 -0.17579988 0.17125818 -0.016245138 0.17311874 -0.097104207 0.20175146 -0.15805216 0.10552585 0.15620817 -0.015655918 -0.099195741 0.091661818 -0.11769697 -0.033207469 -0.11935174 0.1896268 -0.083926968 0.24045788 -0.087073699 0.088105731 -0.093876369 -0.10193983 -0.10476454 -0.12607788 -0.084027678 -0.11436763 -0.073315263 0.15345806 -0.057500288 -0.21423258 -0.11980982 -0.17209345 -0.079862207 -0.10648093 -0.078464076 -0.066541903 -0.10622747 0.32654291 -0.029534139 -0.082211599 0.20481585 -0.011787835 0.003015209 0.0014913867 -0.050699696 -0.05942047 0.13747127 0.084083483 0.23371871 0.22050287 0.022683522 -0.08126419 0.2281242 -0.12304159 0.17278081 0.14234562 0.056255274 -0.017565724 -0.07905861 0.05116038 0.21872436 0.075033389 0.15957449 -0.18575755 0.027816489 0.1310831 0.22609469 0.064304948 -0.30861551 0.052446362 0.1028811 -0.1250778 -0.25709131 -0.14008822 -0.14413229 -0.11775053 0.1118268 -0.10782856 0.025789656 0.044067387 0.33563042 -0.15548666 0.11245113 0.095521644 0.18439077 0.060901955 0.055872474
revolutionary 0.13254392 -0.096694417 0.15720205 -0.051111795 -0.012770131 0.14617264 -0.010627886 -0.16955779 0.014404346 0.16034251 -0.08782275 0.24211477 -0.020095561 -0.17204593 0.16934426 -0.015634747 0.17905027 -0.093830958 0.21406002 -0.15680727 0.10310156 0.14777608 -0.015869778 -0.09809614 0.087515697 -0.12215739 -0.026580554 -0.11823997 0.19249508 -0.086268738 0.24201837 -0.081484772 0.086783148 -0.0973837 -0.095139258 -0.1073117 -0.11996233 -0.089247219 -0.11228245 -0.080207191 0.16053091 -0.053637434 -0.21913469 -0.11771865 -0.16510661 -0.080277823 -0.10475337 -0.07487762 -0.0758624 -0.10647724 0.3264069 -0.029051432 -0.073670149 0.20441109 -0.013936841 -0.0029553457 0.001845747 -0.061228875 -0.0526218 0.14124583 0.081139803 0.22923401 0.22082968 0.021769013 -0.074199826 0.23001486 -0.13264543 0.17326388 0.14581674 0.059748363 -0.012331152 -0.085915878 0.053563517 0.22267622 0.076850854 0.15761594 -0.18410674 0.024994824 0.13200371 0.22842082 0.072338253 -0.31077716 0.051717244 0.10720762 -0.13299239 -0.2519255 -0.14641726 -0.14940658 -0.11942972 0.11871416 -0.10973754 0.030765399 0.049793608 0.34128755 -0.15298049 0.11042836 0.090729445 0.18089437 0.069089182 0.056370787
between 0.12290806 -0.094740428 0.14777318 -0.046710622 -0.016176751 0.14237377 -0.0097593805 -0.15777186 0.01362632 0.15381905 -0.083572462 0.2391789 -0.01563618 -0.16773081 0.16087386 -0.022116957 0.16652466 -0.099036567 0.20816924 -0.15174028 0.10856414 0.14635004 -0.018210232 -0.097629093 0.086200714 -0.12048431 -0.032486834 -0.11082096 0.19381651 -0.079620518 0.23217589 -0.080938607 0.087632954 -0.089055702 -0.096628979 -0.10288905 -0.12391247 -0.087166771 -0.10546626 -0.076247126 0.15690354 -0.055741839 -0.21290028 -0.11565402 -0.16289629 -0.077604361 -0.098166436 -0.079344228 -0.070629992 -0.10201344 0.31435865 -0.027464427 -0.069187514 0.19707906 -0.0094361212 0.0016982805 -0.0028551638 -0.053407159 -0.05072353 0.13105766 0.079519942 0.22835702 0.22221732 0.014872968 -0.075278081 0.21662955 -0.12051069 0.16742764 0.14067829 0.049090039 -0.016438657 -0.075907916 0.053955253 0.21859235 0.073469333 0.15836558 -0.17910822 0.016772959 0.12426269 0.21558002 0.066124685 -0.30120397 0.053521916 0.10210866 -0.13098344 -0.24833073 -0.1382217 -0.14312467 -0.11371475 0.10956773 -0.095887125 0.033641342 0.038044699 0.32616934 -0.15092771 0.10559633 0.08974041 0.17745946 0.064784445 0.050468121
government 0.12732747 -0.093206286 0.14769877 -0.054105818 -0.014736354 0.1443359 -0.006107654 -0.15567011 0.015927663 0.15545005 -0.084827088 0.23103417 -0.020997385 -0.16380611 0.16550109 -0.018916372 0.16668499 -0.096406423 0.20047273 -0.16180767 0.10127532 0.13826443 -0.012142505 -0.09130346 0.086100735 -0.12397867 -0.030421708 -0.11168427 0.18187231 -0.081397682 0.23672771 -0.08229845 0.089477025 -0.095128819 -0.093835913 -0.1055963 -0.12021674 -0.088360965 -0.10182136 -0.082299344 0.15233268 -0.056478862 -0.21386558 -0.10843459 -0.16162749 -0.071563222 -0.10605077 -0.077183396 -0.06764055 -0.1015314 0.30894816 -0.024532508 -0.072341226 0.19145654 -0.015620438 0.0016450878 0.00012235819 -0.051668774 -0.056268249 0.12711036 0.077492848 0.22536874 0.21698169 0.015059378 -0.073279127 0.21127416 -0.12569149 0.1634738 0.13779271 0.057727229 -0.014421561 -0.084616363 0.053386897 0.21130288 0.072926737 0.15535979 -0.17280588 0.021182302 0.13188548 0.21902858 0.071472444 -0.30799627 0.046386816 0.095992066 -0.13026662 -0.24360889 -0.14574765 -0.14713527 -0.1143609 0.11807382 -0.10044927 0.032288194 0.045255706 0.32418042 -0.14277951 0.10240456 0.089614742 0.17539179 0.065045513 0.048441347
would 0.12158236 -0.089135058 0.15410939 -0.055940934 -0.0098299915 0.14907606 -0.012040393 -0.16383913 0.013131307 0.15610693 -0.094056845 0.23903307 -0.021873023 -0.16995446 0.16692646 -0.019106409 0.1680638 -0.0983437 0.20306455 -0.15417904 0.10155439 0.14048864 -0.012083717 -0.095911197 0.08085569 -0.12060191 -0.029808536 -0.11605638 0.19209866 -0.083348751 0.23706231 -0.082203604 0.090564713 -0.089681245 -0.096117608 -0.10485368 -0.12346711 -0.088934749 -0.10699303 -0.078644402 0.15650402 -0.055235706 -0.21817778 -0.11645498 -0.16593592 -0.079052657 -0.10686905 -0.083453901 -0.068444833 -0.10897278 0.32342488 -0.030185599 -0.070921533 0.1974023 -0.014221768 -0.0072890827 -0.0012745421 -0.058927976 -0.059073485 0.13188325 0.077879354 0.22176887 0.22429685 0.017894436 -0.07222233 0.21928132 -0.1318718 0.1621902 0.1468308 0.053680763 -0.016970098 -0.082764275 0.057093132 0.21745454 0.07281258 0.15504545 -0.17698207 0.027674286 0.12883987 0.22705369 0.065385938 -0.31218484 0.051543586 0.10054261 -0.13440587 -0.24735203 -0.13884139 -0.14030555 -0.11635607 0.11728334 -0.097969353 0.028972039 0.044851724 0.32590312 -0.14554842 0.1105114 0.094775729 0.17607707 0.069719233 0.055302322
more 0.12642249 -0.092054874 0.15106876 -0.050228965 -0.011696523 0.14764853 -0.0057766126 -0.16272616 0.011313239 0.16582632 -0.088584989 0.24581373 -0.020287303 -0.17189072 0.17160431 -0.024271682 0.1716406 -0.094441213 0.21156286 -0.16223519 0.11035033 0.14937709 -0.01188817 -0.09299203 0.083943576 -0.1207376 -0.029445287 -0.11920675 0.19366966 -0.081907064 0.24814396 -0.085594282 0.088453569 -0.090691395 -0.096057177 -0.11291003 -0.12668909 -0.089955449 -0.10524885 -0.082215995 0.16587745 -0.055779103 -0.21342269 -0.11691815 -0.16763514 -0.076188542 -0.10912479 -0.07850524 -0.075152144 -0.10066719 0.32974091 -0.022972988 -0.078507535 0.19871262 -0.007612607 -0.0044860691 -0.0065394384 -0.054953687 -0.054722294 0.14137007 0.074900709 0.23261827 0.22529411 0.01611755 -0.071762718 0.22968103 -0.13088235 0.16835603 0.15137525 0.059359107 -0.013403133 -0.07566528 0.052647159 0.22567262 0.077803344 0.16118824 -0.18561499 0.02683231 0.13627461 0.23248176 0.068785302 -0.30879912 0.047448982 0.10070005 -0.13412461 -0.25952795 -0.15042262 -0.15173335 -0.11903129 0.12076085 -0.098972179 0.02904515 0.040227264 0.33660096 -0.15273097 0.1065454 0.094004646 0.18026756 0.066183358 0.057135317
one 0.1259522 -0.094338231 0.15438214 -0.048701171 -0.0077932575 0.141993 -0.0017355329 -0.15987889 0.014256927 0.1526494 -0.080218196 0.23196223 -0.017750476 -0.17314784 0.16398934 -0.017695574 0.1729449 -0.095737062 0.20002192 -0.15865323 0.10604262 0.14866918 -0.01927371 -0.087261505 0.085677288 -0.12372248 -0.023102865 -0.11743129 0.18987408 -0.073987097 0.2412688 -0.077022232 0.082436539 -0.091334745 -0.098772071 -0.10672705 -0.11673662 -0.085025251 -0.10303871 -0.080509096 0.15705295 -0.052907601 -0.21315154 -0.10785535 -0.15841112 -0.076935649 -0.10656871 -0.083266146 -0.073148638 -0.097294763 0.31847617 -0.022164993 -0.074585825 0.19398576 -0.010673166 0.0028178333 -0.00065767678 -0.049612418 -0.050705183 0.13026714 0.076918431 0.22213639 0.21422188 0.021063313 -0.072457582 0.21368217 -0.12209409 0.1651745 0.13824451 0.050879065 -0.018946271 -0.0837285 0.053435091 0.21171011 0.070774578 0.15390345 -0.17900324 0.022613546 0.13022424 0.21699595 0.066357605 -0.29881462 0.045204137 0.10079178 -0.12776265 -0.24394219 -0.14117657 -0.13964434 -0.1193497 0.11478391 -0.1015935 0.030997802 0.043383393 0.32506561 -0.14515641 0.1075179 0.092979379 0.17571099 0.06000907 0.049699303
been 0.11902668 -0.091070153 0.14699149 -0.045062128 -0.013650492 0.13612109 -0.0066817203 -0.15948696 0.013915713 0.15963249 -0.079930775 0.23666282 -0.017834594 -0.16042931 0.16167098 -0.020164492 0.17368639 -0.098234043 0.20528339 -0.1559051 0.1045339 0.14409144 -0.014954455 -0.095772065 0.082405254 -0.11489492 -0.027727086 -0.11645038 0.18598466 -0.073745199 0.23275283 -0.076318026 0.081103809 -0.090466507 -0.096313298 -0.10303376 -0.11478774 -0.083930545 -0.10237654 -0.076755829 0.14867963 -0.051733859 -0.21094051 -0.11367 -0.15547408 -0.075511545 -0.10216177 -0.072039559 -0.072331794 -0.098926544 0.31664166 -0.023553722 -0.076473325 0.19084394 -0.0084625781 -0.0062743314 -0.0010862047 -0.060699999 -0.053750388 0.13090771 0.070633054 0.22561461 0.21107563 0.020146655 -0.070387475 0.21548598 -0.12570983 0.15846762 0.1392194 0.055107284 -0.01394766 -0.073466696 0.055205718 0.21247515 0.066995285 0.15069561 -0.17823124 0.018381454 0.13097997 0.21653937 0.070656262 -0.2923533 0.049750183 0.098846816 -0.12451472 -0.23846842 -0.13897087 -0.13687941 -0.11216807 0.11328452 -0.098818183 0.026160698 0.038266007 0.32598457 -0.14676665 0.10593598 0.094026081 0.16753215 0.06190085 0.054476425
american 0.12236638 -0.090345003 0.15030527 -0.049534339 -0.016562888 0.14659852 -0.011071739 -0.15433165 0.018012453 0.15340556 -0.086408548 0.24037299 -0.022485843 -0.16872193 0.16561891 -0.017918309 0.1756704 -0.098868087 0.21013406 -0.16179325 0.10542963 0.14995527 -0.019389868 -0.095741078 0.084727272 -0.12181941 -0.028001303 -0.11857143 0.18773425 -0.080541454 0.23952366 -0.085402355 0.085926026 -0.089757368 -0.09834601 -0.10392968 -0.11836496 -0.087847933 -0.1109578 -0.079981774 0.15969254 -0.05004441 -0.20770246 -0.10887714 -0.16205765 -0.069956176 -0.10019236 -0.076968931 -0.074824728 -0.10528375 0.31973594 -0.027155312 -0.076329604 0.1935326 -0.0084242234 -0.0020989121 0.0030525576 -0.051594142 -0.052755892 0.13490114 0.075554863 0.22809249 0.21689366 0.01655356 -0.073653556 0.22286633 -0.12896742 0.16426548 0.14169805 0.059601851 -0.011641085 -0.07384669 0.053060282 0.20888911 0.074285276 0.15854035 -0.17810252 0.020957917 0.13333087 0.22387366 0.069962941 -0.29840276 0.054540116 0.1022049 -0.12876725 -0.25447464 -0.14040847 -0.14273585 -0.1090779 0.11805441 -0.096900083 0.029593945 0.043960921 0.32794282 -0.15098308 0.10310628 0.094394766 0.18092471 0.067819245 0.049070723
many 0.12659693 -0.088996433 0.15196936 -0.051298629 -0.010055924 0.15017918 -0.0043393113 -0.16213717 0.010723309 0.15755911 -0.084150031 0.24366239 -0.015893424 -0.17003785 0.16732767 -0.021897884 0.17192754 -0.093590483 0.2063814 -0.16281924 0.11034988 0.14885139 -0.0086655514 -0.098725654 0.091896251 -0.12174108 -0.027579943 -0.11560249 0.18948424 -0.077469014 0.24971737 -0.083287776 0.091271013 -0.08994367 -0.10011682 -0.10841792 -0.12079369 -0.089536309 -0.10648718 -0.080077171 0.15833215 -0.049860489 -0.21699455 -0.11885164 -0.16173814 -0.072833538 -0.10614012 -0.085815035 -0.075273283 -0.10428432 0.3268992 -0.025654133 -0.072479039 0.19949977 -0.015498837 -0.0019369812 0.0013956585 -0.061699111 -0.060190067 0.13239574 0.079344139 0.22893664 0.22573879 0.02105495 -0.074839987 0.21772268 -0.12605099 0.16229899 0.14993919 0.054252643 -0.020296758 -0.085518062 0.05440136 0.22218625 0.071341224 0.16351175 -0.17774747 0.024187965 0.13014525 0.22811316 0.070016511 -0.3158744 0.055549242 0.1080016 -0.12940027 -0.25102827 -0.1474593 -0.14754911 -0.11810128 0.11837849 -0.10402151 0.029418455 0.047840219 0.33682048 -0.15298505 0.10634401 0.090455756 0.18508685 0.060181949 0.057854313
anarchy 0.12186389 -0.087348737 0.14414099 -0.051033281 -0.01615723 0.14418894 -0.010817332 -0.15630575 0.010383962 0.15159974 -0.083863825 0.23731622 -0.014064765 -0.17033161 0.16545685 -0.018602949 0.17461672 -0.098606765 0.20596723 -0.15758593 0.10477619 0.14755952 -0.0095004644 -0.09735889 0.082531691 -0.12558897 -0.025185613 -0.12371287 0.19310246 -0.083342679 0.2344944 -0.08736597 0.091344289 -0.094263203 -0.10057387 -0.1037067 -0.11528681 -0.091346815 -0.11270846 -0.080380127 0.15767075 -0.054185662 -0.21330796 -0.11261285 -0.15962426 -0.076984465 -0.1056918 -0.076338448 -0.078171775 -0.10222953 0.32038575 -0.024029052 -0.074423298 0.201792 -0.016144333 0.002398951 -0.0028861405 -0.052613694 -0.050976429 0.13749346 0.07654196 0.22217354 0.22771989 0.018370243 -0.081448428 0.21805701 -0.12206123 0.16186905 0.14379518 0.053430554 -0.017811419 -0.081937283 0.047158148 0.21799859 0.068928644 0.15280451 -0.17653812 0.021497734 0.12527202 0.21987374 0.064658783 -0.30920222 0.053109303 0.096740857 -0.13311863 -0.25687441 -0.13904351 -0.14180087 -0.11889617 0.12026664 -0.097510114 0.029302984 0.045824029 0.32682121 -0.14587259 0.10187688 0.094159216 0.17270496 0.059053753 0.049742095
